{"learner":{"attributes":{"scikit_learn":"{\"_estimator_type\": \"regressor\"}"},"feature_names":["Recency","Frequency"],"feature_types":["int","int"],"gradient_booster":{"model":{"cats":{"enc":[],"feature_segments":[],"sorted_idx":[]},"gbtree_model_param":{"num_parallel_tree":"1","num_trees":"100"},"iteration_indptr":[0,1,2,3,4,5,6,7,8,9,10,11,12,13,14,15,16,17,18,19,20,21,22,23,24,25,26,27,28,29,30,31,32,33,34,35,36,37,38,39,40,41,42,43,44,45,46,47,48,49,50,51,52,53,54,55,56,57,58,59,60,61,62,63,64,65,66,67,68,69,70,71,72,73,74,75,76,77,78,79,80,81,82,83,84,85,86,87,88,89,90,91,92,93,94,95,96,97,98,99,100],"tree_info":[0,0,0,0,0,0,0,0,0,0,0,0,0,0,0,0,0,0,0,0,0,0,0,0,0,0,0,0,0,0,0,0,0,0,0,0,0,0,0,0,0,0,0,0,0,0,0,0,0,0,0,0,0,0,0,0,0,0,0,0,0,0,0,0,0,0,0,0,0,0,0,0,0,0,0,0,0,0,0,0,0,0,0,0,0,0,0,0,0,0,0,0,0,0,0,0,0,0,0,0],"trees":[{"base_weights":[-1.4894295E-7,-6.095416E-1,1.1829542E0,-1.0330235E0,-1.4077975E-1,8.694746E-1,2.295536E0,-9.442653E-1,-1.1368481E0,-3.196038E-1,1.5384036E-1,6.0013133E-1,1.1822996E0,2.0427697E0,3.3922107E0,-1.1426423E0,-8.6841726E-1,-1.1105384E0,-3.7324107E-1,1.965533E-1,-3.292822E-1,1.846833E-1,5.1230023E-4,4.886653E-1,7.610485E-1,9.7567636E-1,1.278972E0,5.435913E-1,6.788717E-1,2.857518E0,1.2284728E0,-2.3390403E-1,-3.485644E-1,-9.558737E-2,-8.747311E-1,-1.1312459E0,-1.4305477E-1,-3.1257668E-1,-6.889048E-1,1.73517E-1,2.0876326E-1,-1.2620345E-1,3.2361186E-1,5.072036E-1,4.4659797E-2,7.745915E-1,-1.1865053E-1,3.11316E-1,-3.513992E-1,3.849415E-1,1.31132845E-2,8.905028E-1,2.611942E-1,-2.636464E-1,-5.29408E-2,-3.9499316E-1,-3.3383918E-1,-1.2147813E-1,-8.341971E-2,-2.9387915E-1,-1.7625822E-1,5.7358477E-2,-1.0959895E-2,-1.2157342E-2,-1.12059735E-1,2.9310867E-1,-7.863532E-3,2.0201237E-1,1.4942248E-1,-6.519425E-3,1.2620316E-1,2.3890112E-1,1.2016004E-1,-3.467246E-1,-7.414866E-3],"categories":[],"categories_nodes":[],"categories_segments":[],"categories_sizes":[],"default_left":[0,0,0,0,0,0,0,0,0,0,0,0,0,0,0,0,0,0,0,0,0,0,0,0,0,0,0,0,0,0,0,0,0,0,0,0,0,0,0,0,0,0,0,0,0,0,0,0,0,0,0,0,0,0,0,0,0,0,0,0,0,0,0,0,0,0,0,0,0,0,0,0,0,0,0],"id":0,"left_children":[1,3,5,7,9,11,13,15,17,19,21,23,25,27,29,31,33,35,-1,-1,37,39,41,43,45,47,49,-1,-1,51,-1,-1,-1,-1,53,55,-1,57,59,61,-1,63,65,67,69,71,-1,-1,73,-1,-1,-1,-1,-1,-1,-1,-1,-1,-1,-1,-1,-1,-1,-1,-1,-1,-1,-1,-1,-1,-1,-1,-1,-1,-1],"loss_changes":[2.5042402E3,4.5484442E2,4.099037E2,1.00217285E1,5.7423317E1,7.705994E1,6.4865845E1,8.86322E0,1.7089844E-1,6.6121902E0,1.9482889E0,8.560623E0,7.2614136E0,6.7215576E0,5.9578857E0,3.3709717E-1,1.3806152E0,5.378662E0,0E0,0E0,3.8218231E0,1.8371477E0,2.9067671E0,2.4219818E0,3.4703064E0,1.1891769E1,1.420929E0,0E0,0E0,4.021469E0,0E0,0E0,0E0,0E0,1.1929321E0,2.6062012E-2,0E0,1.9398994E0,2.7907848E-1,1.2583485E0,0E0,1.0655985E0,4.597224E0,9.693146E-2,3.3367717E-1,1.3078537E0,0E0,0E0,1.8108053E0,0E0,0E0,0E0,0E0,0E0,0E0,0E0,0E0,0E0,0E0,0E0,0E0,0E0,0E0,0E0,0E0,0E0,0E0,0E0,0E0,0E0,0E0,0E0,0E0,0E0,0E0],"parents":[2147483647,0,0,1,1,2,2,3,3,4,4,5,5,6,6,7,7,8,8,9,9,10,10,11,11,12,12,13,13,14,14,15,15,16,16,17,17,20,20,21,21,22,22,23,23,24,24,25,25,26,26,29,29,34,34,35,35,37,37,38,38,39,39,41,41,42,42,43,43,44,44,45,45,48,48],"right_children":[2,4,6,8,10,12,14,16,18,20,22,24,26,28,30,32,34,36,-1,-1,38,40,42,44,46,48,50,-1,-1,52,-1,-1,-1,-1,54,56,-1,58,60,62,-1,64,66,68,70,72,-1,-1,74,-1,-1,-1,-1,-1,-1,-1,-1,-1,-1,-1,-1,-1,-1,-1,-1,-1,-1,-1,-1,-1,-1,-1,-1,-1,-1],"split_conditions":[4E0,2E0,1.1E1,1.56E2,3E0,6E0,2.6E1,3.1E1,3.33E2,2E0,1.37E2,5E0,7E0,1.5E1,4.4E1,4E0,3.2E1,3.26E2,-3.7324107E-1,1.965533E-1,2.76E2,1.31E2,2.19E2,1.58E2,2.82E2,1.45E2,2.78E2,5.435913E-1,6.788717E-1,1.7E1,1.2284728E0,-2.3390403E-1,-3.485644E-1,-9.558737E-2,1.53E2,1.72E2,-1.4305477E-1,2.4E1,2.84E2,1.02E2,2.0876326E-1,1.96E2,2.43E2,3E0,3.09E2,1.1E2,-1.1865053E-1,3.11316E-1,1.55E2,3.849415E-1,1.31132845E-2,8.905028E-1,2.611942E-1,-2.636464E-1,-5.29408E-2,-3.9499316E-1,-3.3383918E-1,-1.2147813E-1,-8.341971E-2,-2.9387915E-1,-1.7625822E-1,5.7358477E-2,-1.0959895E-2,-1.2157342E-2,-1.12059735E-1,2.9310867E-1,-7.863532E-3,2.0201237E-1,1.4942248E-1,-6.519425E-3,1.2620316E-1,2.3890112E-1,1.2016004E-1,-3.467246E-1,-7.414866E-3],"split_indices":[1,1,1,0,1,1,1,0,0,0,0,1,1,1,1,0,0,0,0,0,0,0,0,0,0,0,0,0,0,0,0,0,0,0,0,0,0,0,0,0,0,0,0,0,0,0,0,0,0,0,0,0,0,0,0,0,0,0,0,0,0,0,0,0,0,0,0,0,0,0,0,0,0,0,0],"split_type":[0,0,0,0,0,0,0,0,0,0,0,0,0,0,0,0,0,0,0,0,0,0,0,0,0,0,0,0,0,0,0,0,0,0,0,0,0,0,0,0,0,0,0,0,0,0,0,0,0,0,0,0,0,0,0,0,0,0,0,0,0,0,0,0,0,0,0,0,0,0,0,0,0,0,0],"sum_hessian":[3.471E3,2.291E3,1.18E3,1.203E3,1.088E3,9.22E2,2.58E2,6.54E2,5.49E2,6.77E2,4.11E2,4.97E2,4.25E2,2.12E2,4.6E1,1.77E2,4.77E2,4.5E2,9.9E1,6E0,6.71E2,3.42E2,6.9E1,2.96E2,2.01E2,1.39E2,2.86E2,1.08E2,1.04E2,2.9E1,1.7E1,1.1E1,1.66E2,6E0,4.71E2,4.35E2,1.5E1,6.43E2,2.8E1,3.36E2,6E0,5E1,1.9E1,2.84E2,1.2E1,1.99E2,2E0,1.33E2,6E0,2.85E2,1E0,2.7E1,2E0,4.68E2,3E0,3.3E1,4.02E2,1.72E2,4.71E2,5E0,2.3E1,3.1E2,2.6E1,3.8E1,1.2E1,6E0,1.3E1,1.1E1,2.73E2,1.1E1,1E0,1.87E2,1.2E1,1E0,5E0],"tree_param":{"num_deleted":"0","num_feature":"2","num_nodes":"75","size_leaf_vector":"1"}},{"base_weights":[6.817422E-4,-4.2768347E-1,8.320216E-1,-7.2497666E-1,-9.860293E-2,6.097879E-1,1.6207849E0,-6.6310066E-1,-8.000869E-1,-2.2442834E-1,1.0869861E-1,4.215206E-1,8.284435E-1,1.4356779E0,2.4251893E0,-8.031216E-1,-6.107759E-1,-1.0454873E0,-7.8762215E-1,1.4601104E-1,-2.31502E-1,1.7011459E-1,6.3975014E-2,3.436518E-1,5.3392404E-1,6.8266755E-1,8.9666724E-1,1.2733666E0,4.7714987E-1,2.0386522E0,8.804055E-1,-6.770782E-1,-8.539778E-1,-5.689648E-1,-7.151167E-1,-2.0285349E-1,-3.4081697E-1,-3.5387423E-2,-7.9261374E-1,-1.9170597E-1,-3.4881377E-1,-7.609716E-2,1.9397074E-1,-1.3404377E-1,9.508388E-2,3.5627544E-1,4.0468216E-2,5.440093E-1,-9.492045E-2,7.287273E-1,-2.9657084E-1,8.995426E-1,1.11462595E-2,3.8388053E-1,8.999591E-2,6.404697E-1,8.793249E-1,-2.3399179E-1,-1.3069613E-1,-7.8277963E-1,-2.410202E-1,-1.8301874E-1,-3.6322046E-2,-3.1159097E-1,-1.791282E-1,-2.0333056E-1,-2.4473186E-1,-7.317679E-2,-1.7061777E-2,-2.803516E-1,-9.8685466E-2,2.2403773E-2,-5.220928E-2,1.1668632E-1,5.2142106E-2,8.220361E-3,-2.2128329E-1,1.5465632E-1,2.4656633E-2,1.0485469E-1,1.724419E-1,-4.726613E-3,1.072727E-1,9.959813E-2,1.7090513E-1,1.8605787E-1,2.3406965E-1,-2.947159E-1,-5.561161E-3,2.5265056E-1,2.8530827E-1,3.184804E-1,4.9874354E-2],"categories":[],"categories_nodes":[],"categories_segments":[],"categories_sizes":[],"default_left":[0,0,0,0,0,0,0,0,0,0,0,0,0,0,0,0,0,0,0,0,0,0,0,0,0,0,0,0,0,0,0,0,0,0,0,0,0,0,0,0,0,0,0,0,0,0,0,0,0,0,0,0,0,0,0,0,0,0,0,0,0,0,0,0,0,0,0,0,0,0,0,0,0,0,0,0,0,0,0,0,0,0,0,0,0,0,0,0,0,0,0,0,0],"id":1,"left_children":[1,3,5,7,9,11,13,15,17,19,21,23,25,27,29,31,33,35,37,-1,39,41,43,45,47,49,51,53,-1,55,-1,57,59,61,63,-1,-1,-1,65,67,69,71,73,75,77,79,81,83,-1,85,87,89,-1,-1,-1,-1,91,-1,-1,-1,-1,-1,-1,-1,-1,-1,-1,-1,-1,-1,-1,-1,-1,-1,-1,-1,-1,-1,-1,-1,-1,-1,-1,-1,-1,-1,-1,-1,-1,-1,-1,-1,-1],"loss_changes":[1.2367943E3,2.2416269E2,2.0602893E2,5.0650635E0,2.8429657E1,3.764673E1,3.5083557E1,4.388977E0,8.2528687E-1,3.5232124E0,1.1207752E0,4.175377E0,3.6246033E0,3.32724E0,3.2733154E0,5.627823E-1,1.7264404E0,1.127243E-3,1.6346741E0,0E0,3.0703926E0,1.0309052E0,1.491179E0,1.1222801E0,1.9044266E0,6.530594E0,6.758728E-1,2.7766418E-1,0E0,1.4701691E0,0E0,1.0513096E0,8.823349E0,6.442322E0,4.5726852E0,0E0,0E0,0E0,8.1155396E-1,3.5345592E0,1.6585941E0,2.4925411E-1,5.5358934E-1,3.2358265E0,1.0853193E0,2.2010803E-1,2.3740968E-1,8.9953995E-1,0E0,2.6517487E-1,1.3165478E0,4.3914795E-2,0E0,0E0,0E0,0E0,3.434193E-1,0E0,0E0,0E0,0E0,0E0,0E0,0E0,0E0,0E0,0E0,0E0,0E0,0E0,0E0,0E0,0E0,0E0,0E0,0E0,0E0,0E0,0E0,0E0,0E0,0E0,0E0,0E0,0E0,0E0,0E0,0E0,0E0,0E0,0E0,0E0,0E0],"parents":[2147483647,0,0,1,1,2,2,3,3,4,4,5,5,6,6,7,7,8,8,9,9,10,10,11,11,12,12,13,13,14,14,15,15,16,16,17,17,18,18,20,20,21,21,22,22,23,23,24,24,25,25,26,26,27,27,29,29,31,31,32,32,33,33,34,34,38,38,39,39,40,40,41,41,42,42,43,43,44,44,45,45,46,46,47,47,49,49,50,50,51,51,56,56],"right_children":[2,4,6,8,10,12,14,16,18,20,22,24,26,28,30,32,34,36,38,-1,40,42,44,46,48,50,52,54,-1,56,-1,58,60,62,64,-1,-1,-1,66,68,70,72,74,76,78,80,82,84,-1,86,88,90,-1,-1,-1,-1,92,-1,-1,-1,-1,-1,-1,-1,-1,-1,-1,-1,-1,-1,-1,-1,-1,-1,-1,-1,-1,-1,-1,-1,-1,-1,-1,-1,-1,-1,-1,-1,-1,-1,-1,-1,-1],"split_conditions":[4E0,2E0,1.1E1,1.6E2,3E0,6E0,2.6E1,3.1E1,1.72E2,2E0,3.4E1,5E0,7E0,1.5E1,4.4E1,1.3E1,9.3E1,1.63E2,1.73E2,1.4601104E-1,1.55E2,3E0,4.6E1,1.58E2,2.82E2,1.45E2,2.78E2,1.64E2,4.7714987E-1,1E1,8.804055E-1,1.1E1,1.5E1,8.5E1,1.11E2,-2.0285349E-1,-3.4081697E-1,-3.5387423E-2,2.14E2,6.7E1,1.57E2,2E0,5E0,4.5E1,4.7E1,1.44E2,3.09E2,5E0,-9.492045E-2,1.6E1,1.55E2,1.7E1,1.11462595E-2,3.8388053E-1,8.999591E-2,6.404697E-1,3.7E1,-2.3399179E-1,-1.3069613E-1,-7.8277963E-1,-2.410202E-1,-1.8301874E-1,-3.6322046E-2,-3.1159097E-1,-1.791282E-1,-2.0333056E-1,-2.4473186E-1,-7.317679E-2,-1.7061777E-2,-2.803516E-1,-9.8685466E-2,2.2403773E-2,-5.220928E-2,1.1668632E-1,5.2142106E-2,8.220361E-3,-2.2128329E-1,1.5465632E-1,2.4656633E-2,1.0485469E-1,1.724419E-1,-4.726613E-3,1.072727E-1,9.959813E-2,1.7090513E-1,1.8605787E-1,2.3406965E-1,-2.947159E-1,-5.561161E-3,2.5265056E-1,2.8530827E-1,3.184804E-1,4.9874354E-2],"split_indices":[1,1,1,0,1,1,1,0,0,0,0,1,1,1,1,0,0,0,0,0,0,0,0,0,0,0,0,0,0,0,0,0,0,0,0,0,0,0,0,0,0,0,0,0,0,0,0,0,0,0,0,0,0,0,0,0,1,0,0,0,0,0,0,0,0,0,0,0,0,0,0,0,0,0,0,0,0,0,0,0,0,0,0,0,0,0,0,0,0,0,0,0,0],"split_type":[0,0,0,0,0,0,0,0,0,0,0,0,0,0,0,0,0,0,0,0,0,0,0,0,0,0,0,0,0,0,0,0,0,0,0,0,0,0,0,0,0,0,0,0,0,0,0,0,0,0,0,0,0,0,0,0,0,0,0,0,0,0,0,0,0,0,0,0,0,0,0,0,0,0,0,0,0,0,0,0,0,0,0,0,0,0,0,0,0,0,0,0,0],"sum_hessian":[3.471E3,2.291E3,1.18E3,1.203E3,1.088E3,9.22E2,2.58E2,6.65E2,5.38E2,6.77E2,4.11E2,4.97E2,4.25E2,2.12E2,4.6E1,1.77E2,4.88E2,2.2E1,5.16E2,6E0,6.71E2,1.72E2,2.39E2,2.96E2,2.01E2,1.39E2,2.86E2,1.08E2,1.04E2,2.9E1,1.7E1,5.5E1,1.22E2,3.53E2,1.35E2,6E0,1.6E1,4E0,5.12E2,5.03E2,1.68E2,1.5E1,1.57E2,3.2E1,2.07E2,2.84E2,1.2E1,1.99E2,2E0,1.33E2,6E0,2.85E2,1E0,1.07E2,1E0,2.6E1,3E0,3.7E1,1.8E1,2E0,1.2E2,3.23E2,3E1,3.4E1,1.01E2,9.1E1,4.21E2,3.62E2,1.41E2,4E0,1.64E2,6E0,9E0,1.3E1,1.44E2,2.6E1,6E0,5E0,2.02E2,2.78E2,6E0,1.1E1,1E0,2.3E1,1.76E2,4.7E1,8.6E1,1E0,5E0,1.43E2,1.42E2,2E0,1E0],"tree_param":{"num_deleted":"0","num_feature":"2","num_nodes":"93","size_leaf_vector":"1"}},{"base_weights":[6.8484E-4,-3.0083728E-1,5.8585674E-1,-5.1007974E-1,-6.9222264E-2,4.2817798E-1,1.1455156E0,-4.6288556E-1,-5.610718E-1,-1.5757665E-1,7.6344475E-2,2.9617977E-1,5.814806E-1,1.0094393E0,1.7378285E0,-5.699856E-1,-4.198752E-1,-5.486524E-1,-7.016778E-1,-1.3010758E-1,-2.6412147E-1,9.554901E-2,-3.155924E-2,2.418353E-1,3.746161E-1,5.215165E-1,6.695828E-1,9.3380696E-1,3.749914E-1,1.4606837E0,6.309571E-1,-5.3267753E-1,-2.0802562E-1,-4.3375984E-1,-2.0918006E-1,-6.2589943E-1,-5.295453E-1,-2.508687E-1,-1.5153976E-1,1.0846539E-1,-1.3629732E-1,-7.058858E-1,-2.0039922E-1,9.181259E-2,2.0993407E-1,-1.5883124E-1,3.0137364E-2,2.5093633E-1,3.994005E-2,4.0833142E-1,1.3068427E-1,5.410761E-1,-7.97525E-2,4.97603E-1,7.207826E-1,9.518671E-1,6.227133E-1,4.8478517E-1,8.317064E-1,-1.7523283E-1,-5.769279E-2,-1.1979006E-1,-1.8172945E-1,1.9746037E-1,-1.2269531E-1,-1.7258759E-1,-2.3666555E-1,-9.760173E-2,-1.6642669E-1,-5.656403E-2,-2.3455791E-2,-1.6007958E-1,-3.3972597E-1,-3.8388766E-2,-1.15235634E-1,2.2049386E-2,4.6990093E-2,-2.0759242E-2,6.521E-2,7.351106E-2,1.4503184E-1,-1.1242611E-3,9.118181E-2,7.0963725E-2,1.2973551E-1,5.196443E-2,-7.593632E-2,1.8220295E-1,1.5276164E-1,-2.5050855E-1,3.5710663E-2,1.5669374E-1,-7.732287E-2,2.3288018E-1,1.6900201E-1,2.558781E-1,3.0525127E-1,7.39204E-2,2.0200069E-1,2.7304414E-1,4.2393208E-2],"categories":[],"categories_nodes":[],"categories_segments":[],"categories_sizes":[],"default_left":[0,0,0,0,0,0,0,0,0,0,0,0,0,0,0,0,0,0,0,0,0,0,0,0,0,0,0,0,0,0,0,0,0,0,0,0,0,0,0,0,0,0,0,0,0,0,0,0,0,0,0,0,0,0,0,0,0,0,0,0,0,0,0,0,0,0,0,0,0,0,0,0,0,0,0,0,0,0,0,0,0,0,0,0,0,0,0,0,0,0,0,0,0,0,0,0,0,0,0,0,0],"id":2,"left_children":[1,3,5,7,9,11,13,15,17,19,21,23,25,27,29,31,33,35,37,39,41,43,45,47,49,51,53,55,-1,57,-1,59,-1,61,63,65,67,-1,-1,-1,69,71,73,75,-1,-1,77,79,81,83,85,87,89,91,93,95,97,-1,99,-1,-1,-1,-1,-1,-1,-1,-1,-1,-1,-1,-1,-1,-1,-1,-1,-1,-1,-1,-1,-1,-1,-1,-1,-1,-1,-1,-1,-1,-1,-1,-1,-1,-1,-1,-1,-1,-1,-1,-1,-1,-1],"loss_changes":[6.127838E2,1.1104347E2,1.0372839E2,2.6377258E0,1.4018158E1,1.8505295E1,1.9121094E1,2.667328E0,6.173706E-1,1.9499302E0,8.567786E-1,2.0321693E0,1.9013519E0,2.7076569E0,1.687027E0,4.5033646E-1,1.2374115E0,4.537506E-1,7.147465E-1,1.6956692E0,3.7432709E0,7.259333E-1,1.9511515E0,5.3570366E-1,1.607935E0,3.077385E0,1.1294327E0,3.399048E-1,0E0,1.5857773E0,0E0,2.3559875E0,0E0,2.2771912E0,5.4683895E0,3.7099075E-1,2.048645E0,0E0,0E0,0E0,1.6096697E0,6.4501095E-1,1.5744271E0,4.0281177E-1,0E0,0E0,1.0751495E0,2.7108765E-1,1.6260791E-1,6.3110924E-1,4.6825343E-1,2.1873474E-1,1.4506563E0,9.18519E-1,6.808624E-1,1.3873291E-1,6.268644E-2,0E0,3.046279E-1,0E0,0E0,0E0,0E0,0E0,0E0,0E0,0E0,0E0,0E0,0E0,0E0,0E0,0E0,0E0,0E0,0E0,0E0,0E0,0E0,0E0,0E0,0E0,0E0,0E0,0E0,0E0,0E0,0E0,0E0,0E0,0E0,0E0,0E0,0E0,0E0,0E0,0E0,0E0,0E0,0E0,0E0],"parents":[2147483647,0,0,1,1,2,2,3,3,4,4,5,5,6,6,7,7,8,8,9,9,10,10,11,11,12,12,13,13,14,14,15,15,16,16,17,17,18,18,19,19,20,20,21,21,22,22,23,23,24,24,25,25,26,26,27,27,29,29,31,31,33,33,34,34,35,35,36,36,40,40,41,41,42,42,43,43,46,46,47,47,48,48,49,49,50,50,51,51,52,52,53,53,54,54,55,55,56,56,58,58],"right_children":[2,4,6,8,10,12,14,16,18,20,22,24,26,28,30,32,34,36,38,40,42,44,46,48,50,52,54,56,-1,58,-1,60,-1,62,64,66,68,-1,-1,-1,70,72,74,76,-1,-1,78,80,82,84,86,88,90,92,94,96,98,-1,100,-1,-1,-1,-1,-1,-1,-1,-1,-1,-1,-1,-1,-1,-1,-1,-1,-1,-1,-1,-1,-1,-1,-1,-1,-1,-1,-1,-1,-1,-1,-1,-1,-1,-1,-1,-1,-1,-1,-1,-1,-1,-1],"split_conditions":[4E0,2E0,1.1E1,1.4E2,3E0,6E0,2.6E1,3.1E1,3.67E2,1.73E2,1.49E2,5E0,8E0,1.9E1,4.4E1,2.6E1,1.3E2,1.88E2,3.73E2,2E0,1.89E2,1.48E2,1.59E2,1.54E2,9E1,1.45E2,7E0,6.1E1,3.749914E-1,3.7E1,6.309571E-1,2.4E1,-2.0802562E-1,9.4E1,1.31E2,1.79E2,2.13E2,-2.508687E-1,-1.5153976E-1,1.0846539E-1,4.6E1,1.86E2,2.73E2,7.5E1,2.0993407E-1,-1.5883124E-1,2.19E2,1.44E2,3.09E2,5E0,2.82E2,1.1E1,1.55E2,6E0,4.1E1,9E0,7.4E1,4.8478517E-1,5E0,-1.7523283E-1,-5.769279E-2,-1.1979006E-1,-1.8172945E-1,1.9746037E-1,-1.2269531E-1,-1.7258759E-1,-2.3666555E-1,-9.760173E-2,-1.6642669E-1,-5.656403E-2,-2.3455791E-2,-1.6007958E-1,-3.3972597E-1,-3.8388766E-2,-1.15235634E-1,2.2049386E-2,4.6990093E-2,-2.0759242E-2,6.521E-2,7.351106E-2,1.4503184E-1,-1.1242611E-3,9.118181E-2,7.0963725E-2,1.2973551E-1,5.196443E-2,-7.593632E-2,1.8220295E-1,1.5276164E-1,-2.5050855E-1,3.5710663E-2,1.5669374E-1,-7.732287E-2,2.3288018E-1,1.6900201E-1,2.558781E-1,3.0525127E-1,7.39204E-2,2.0200069E-1,2.7304414E-1,4.2393208E-2],"split_indices":[1,1,1,0,1,1,1,0,0,0,0,1,1,1,1,0,0,0,0,0,0,0,0,0,0,0,0,0,0,1,0,0,0,0,0,0,0,0,0,0,0,0,0,0,0,0,0,0,0,0,0,0,0,0,0,0,0,0,0,0,0,0,0,0,0,0,0,0,0,0,0,0,0,0,0,0,0,0,0,0,0,0,0,0,0,0,0,0,0,0,0,0,0,0,0,0,0,0,0,0,0],"split_type":[0,0,0,0,0,0,0,0,0,0,0,0,0,0,0,0,0,0,0,0,0,0,0,0,0,0,0,0,0,0,0,0,0,0,0,0,0,0,0,0,0,0,0,0,0,0,0,0,0,0,0,0,0,0,0,0,0,0,0,0,0,0,0,0,0,0,0,0,0,0,0,0,0,0,0,0,0,0,0,0,0,0,0,0,0,0,0,0,0,0,0,0,0,0,0,0,0,0,0,0,0],"sum_hessian":[3.471E3,2.291E3,1.18E3,1.203E3,1.088E3,9.22E2,2.58E2,6.3E2,5.73E2,6.77E2,4.11E2,4.97E2,4.25E2,2.12E2,4.6E1,1.77E2,4.53E2,5.31E2,4.2E1,5.4E2,1.37E2,3.49E2,6.2E1,2.96E2,2.01E2,2.57E2,1.68E2,1.65E2,4.7E1,2.9E1,1.7E1,1.4E2,3.7E1,4.24E2,2.9E1,9.9E1,4.32E2,2.3E1,1.9E1,6E0,5.34E2,1.6E1,1.21E2,3.48E2,1E0,6E0,5.6E1,2.83E2,1.3E1,1.76E2,2.5E1,2.49E2,8E0,4.1E1,1.27E2,1.54E2,1.1E1,2.2E1,7E0,1.21E2,1.9E1,3.56E2,6.8E1,5E0,2.4E1,7.9E1,2E1,4.9E1,3.83E2,2.8E2,2.54E2,1.3E1,3E0,8.8E1,3.3E1,2.73E2,7.5E1,3.7E1,1.9E1,2.78E2,5E0,1.2E1,1E0,2.3E1,1.53E2,2.3E1,2E0,7.5E1,1.74E2,1E0,7E0,4E1,1E0,9.1E1,3.6E1,6.7E1,8.7E1,2E0,9E0,6E0,1E0],"tree_param":{"num_deleted":"0","num_feature":"2","num_nodes":"101","size_leaf_vector":"1"}},{"base_weights":[9.189383E-4,-2.1154764E-1,4.1325805E-1,-3.5850382E-1,-4.8878435E-2,3.107917E-1,8.59437E-1,-3.2507804E-1,-3.9462432E-1,-1.1122559E-1,5.3840622E-2,2.346148E-1,4.586871E-1,7.4982995E-1,1.2469304E0,-3.898609E-1,-2.8097475E-1,-3.8532227E-1,-5.0053275E-1,1.1120744E-2,-1.2488243E-1,9.7961806E-2,2.1812266E-2,1.703237E-1,2.8992224E-1,4.198151E-1,5.112514E-1,6.9367236E-1,8.827922E-1,1.0399538E0,4.491642E-1,-1.9014569E-1,-3.9815313E-1,-5.9571613E-2,-2.937957E-1,-1.9967468E-1,-3.8086003E-1,-1.7874393E-1,-1.083509E-1,8.057434E-2,-1.7662484E-2,-3.522437E-1,-1.1333886E-1,6.0315845E-3,1.3121188E-1,-8.154354E-2,5.595335E-2,1.7414108E-1,-8.743954E-2,3.0953085E-1,-5.8683246E-2,3.6755142E-1,5.025422E-1,5.509294E-1,3.3360398E-1,5.973207E-1,7.612551E-1,8.162308E-1,3.638051E-1,3.3777374E-1,4.0217027E-1,-8.128753E-2,-1.9251967E-2,-1.4404167E-1,-1.1017385E-1,-6.3314945E-2,5.480406E-2,-1.06123805E-1,-7.610185E-2,3.273332E-2,-1.1516376E-1,-2.6335629E-2,7.455853E-3,-8.960211E-2,-1.3143066E-1,-2.5599858E-2,-5.4382395E-2,2.3649324E-2,-6.386086E-2,9.283603E-2,2.4679208E-2,-1.18266465E-2,-1.610983E-1,4.5236915E-2,-7.352222E-4,9.740835E-2,5.013511E-2,-7.15421E-2,7.7504545E-2,9.0274476E-2,2.1437624E-1,-9.9777035E-2,1.09593775E-2,1.13534294E-1,-1.4549483E-2,1.7127681E-1,1.21328466E-1,1.5051277E-1,2.0828164E-1,-7.7183535E-3,1.1916453E-1,9.021724E-2,1.9400023E-1,2.5149292E-1,1.6545853E-1,2.4875908E-1,4.074812E-2,1.3279675E-1,3.6034226E-2],"categories":[],"categories_nodes":[],"categories_segments":[],"categories_sizes":[],"default_left":[0,0,0,0,0,0,0,0,0,0,0,0,0,0,0,0,0,0,0,0,0,0,0,0,0,0,0,0,0,0,0,0,0,0,0,0,0,0,0,0,0,0,0,0,0,0,0,0,0,0,0,0,0,0,0,0,0,0,0,0,0,0,0,0,0,0,0,0,0,0,0,0,0,0,0,0,0,0,0,0,0,0,0,0,0,0,0,0,0,0,0,0,0,0,0,0,0,0,0,0,0,0,0,0,0,0,0,0,0],"id":3,"left_children":[1,3,5,7,9,11,13,15,17,19,21,23,25,27,29,31,33,35,37,39,41,43,45,47,49,51,53,55,57,59,-1,61,63,65,67,-1,69,-1,-1,-1,71,73,75,77,79,81,83,85,87,89,91,93,95,97,99,101,103,105,-1,-1,107,-1,-1,-1,-1,-1,-1,-1,-1,-1,-1,-1,-1,-1,-1,-1,-1,-1,-1,-1,-1,-1,-1,-1,-1,-1,-1,-1,-1,-1,-1,-1,-1,-1,-1,-1,-1,-1,-1,-1,-1,-1,-1,-1,-1,-1,-1,-1,-1],"loss_changes":[3.042634E2,5.4773293E1,5.3726227E1,1.3253784E0,6.9802074E0,1.0730492E1,8.408859E0,1.6933136E0,3.72612E-1,1.1342354E0,5.800725E-1,2.2156487E0,4.5146942E-1,6.8685913E-1,8.777008E-1,3.432846E-1,1.0583267E0,4.1181946E-1,3.5578823E-1,5.160711E-1,1.561059E0,5.2801526E-1,8.514457E-1,3.074684E-1,2.3491287E0,6.4974976E-1,7.607384E-1,3.722725E-1,6.415558E-2,1.1370583E0,0E0,1.0477388E-1,4.3688202E-1,8.458635E-1,7.713909E-1,0E0,8.199997E-1,0E0,0E0,0E0,1.9000359E-1,2.534151E-3,1.0918508E0,7.657675E-1,1.0825598E0,1.1298836E0,1.002898E0,2.5558472E-1,3.2273823E-1,9.1222E-1,5.0766814E-1,5.714245E-1,2.521572E-1,4.1365433E-1,6.273718E-1,6.397896E-1,6.850395E-1,2.6672554E-1,0E0,0E0,3.926754E-3,0E0,0E0,0E0,0E0,0E0,0E0,0E0,0E0,0E0,0E0,0E0,0E0,0E0,0E0,0E0,0E0,0E0,0E0,0E0,0E0,0E0,0E0,0E0,0E0,0E0,0E0,0E0,0E0,0E0,0E0,0E0,0E0,0E0,0E0,0E0,0E0,0E0,0E0,0E0,0E0,0E0,0E0,0E0,0E0,0E0,0E0,0E0,0E0],"parents":[2147483647,0,0,1,1,2,2,3,3,4,4,5,5,6,6,7,7,8,8,9,9,10,10,11,11,12,12,13,13,14,14,15,15,16,16,17,17,18,18,19,19,20,20,21,21,22,22,23,23,24,24,25,25,26,26,27,27,28,28,29,29,31,31,32,32,33,33,34,34,36,36,40,40,41,41,42,42,43,43,44,44,45,45,46,46,47,47,48,48,49,49,50,50,51,51,52,52,53,53,54,54,55,55,56,56,57,57,60,60],"right_children":[2,4,6,8,10,12,14,16,18,20,22,24,26,28,30,32,34,36,38,40,42,44,46,48,50,52,54,56,58,60,-1,62,64,66,68,-1,70,-1,-1,-1,72,74,76,78,80,82,84,86,88,90,92,94,96,98,100,102,104,106,-1,-1,108,-1,-1,-1,-1,-1,-1,-1,-1,-1,-1,-1,-1,-1,-1,-1,-1,-1,-1,-1,-1,-1,-1,-1,-1,-1,-1,-1,-1,-1,-1,-1,-1,-1,-1,-1,-1,-1,-1,-1,-1,-1,-1,-1,-1,-1,-1,-1,-1],"split_conditions":[4E0,2E0,1.2E1,1.4E2,3E0,7E0,2.6E1,4.4E1,3.67E2,1E1,3.4E1,5E0,9E0,1.9E1,4.1E1,4E0,4.7E1,1.43E2,3.73E2,2E0,1.3E1,1E1,5.7E1,2.43E2,1.36E2,3E1,3.7E1,8E0,2.3E1,3.8E1,4.491642E-1,3E0,1.8E1,4.6E1,6.7E1,-1.9967468E-1,1.44E2,-1.7874393E-1,-1.083509E-1,8.057434E-2,5E0,1.2E1,1.55E2,8E0,1.7E1,5.3E1,9.3E1,3E0,3.09E2,1.14E2,1.55E2,2.9E1,5.3E1,2.3E1,4.2E1,1.3E1,2.6E1,1.6E1,3.638051E-1,3.3777374E-1,5E0,-8.128753E-2,-1.9251967E-2,-1.4404167E-1,-1.1017385E-1,-6.3314945E-2,5.480406E-2,-1.06123805E-1,-7.610185E-2,3.273332E-2,-1.1516376E-1,-2.6335629E-2,7.455853E-3,-8.960211E-2,-1.3143066E-1,-2.5599858E-2,-5.4382395E-2,2.3649324E-2,-6.386086E-2,9.283603E-2,2.4679208E-2,-1.18266465E-2,-1.610983E-1,4.5236915E-2,-7.352222E-4,9.740835E-2,5.013511E-2,-7.15421E-2,7.7504545E-2,9.0274476E-2,2.1437624E-1,-9.9777035E-2,1.09593775E-2,1.13534294E-1,-1.4549483E-2,1.7127681E-1,1.21328466E-1,1.5051277E-1,2.0828164E-1,-7.7183535E-3,1.1916453E-1,9.021724E-2,1.9400023E-1,2.5149292E-1,1.6545853E-1,2.4875908E-1,4.074812E-2,1.3279675E-1,3.6034226E-2],"split_indices":[1,1,1,0,1,1,1,0,0,0,0,1,1,1,1,0,0,0,0,0,0,0,0,0,0,0,0,0,0,1,0,0,0,0,0,0,0,0,0,0,0,0,0,0,0,0,0,0,0,0,0,0,0,0,0,1,0,0,0,0,0,0,0,0,0,0,0,0,0,0,0,0,0,0,0,0,0,0,0,0,0,0,0,0,0,0,0,0,0,0,0,0,0,0,0,0,0,0,0,0,0,0,0,0,0,0,0,0,0],"split_type":[0,0,0,0,0,0,0,0,0,0,0,0,0,0,0,0,0,0,0,0,0,0,0,0,0,0,0,0,0,0,0,0,0,0,0,0,0,0,0,0,0,0,0,0,0,0,0,0,0,0,0,0,0,0,0,0,0,0,0,0,0,0,0,0,0,0,0,0,0,0,0,0,0,0,0,0,0,0,0,0,0,0,0,0,0,0,0,0,0,0,0,0,0,0,0,0,0,0,0,0,0,0,0,0,0,0,0,0,0],"sum_hessian":[3.471E3,2.291E3,1.18E3,1.203E3,1.088E3,9.61E2,2.19E2,6.3E2,5.73E2,6.77E2,4.11E2,6.36E2,3.25E2,1.73E2,4.6E1,2.52E2,3.78E2,5.31E2,4.2E1,6.8E1,6.09E2,1.72E2,2.39E2,2.96E2,3.4E2,1.92E2,1.33E2,1.26E2,4.7E1,2.8E1,1.8E1,1.1E1,2.41E2,2.1E1,3.57E2,6E0,5.25E2,2.3E1,1.9E1,6E0,6.2E1,2.8E1,5.81E2,4.6E1,1.26E2,5.9E1,1.8E2,2.92E2,4E0,3.22E2,1.8E1,1.21E2,7.1E1,1.07E2,2.6E1,5.6E1,7E1,4.2E1,5E0,2.4E1,4E0,6E0,5E0,6.2E1,1.79E2,1.3E1,8E0,1.4E2,2.17E2,3E0,5.22E2,2.3E1,3.9E1,2E1,8E0,4.13E2,1.68E2,3.5E1,1.1E1,2.6E1,1E2,5.5E1,4E0,6.8E1,1.12E2,1.1E1,2.81E2,3E0,1E0,3.17E2,5E0,4E0,1.4E1,1.18E2,3E0,3.9E1,3.2E1,8.3E1,2.4E1,4E0,2.2E1,9E0,4.7E1,4.9E1,2.1E1,4.1E1,1E0,3E0,1E0],"tree_param":{"num_deleted":"0","num_feature":"2","num_nodes":"109","size_leaf_vector":"1"}},{"base_weights":[1.2585671E-3,-1.4869641E-1,2.9227933E-1,-2.518785E-1,-3.448158E-2,2.1883403E-1,6.121071E-1,-2.1997435E-1,-2.764723E-1,-7.821085E-2,3.756436E-2,1.4364648E-1,2.9888687E-1,5.3266543E-1,8.9318687E-1,-2.4751478E-1,6.772776E-2,-4.814546E-1,-2.6418978E-1,-7.089929E-2,-2.3939359E-1,3.405957E-2,1.1596145E-1,1.4747219E-1,-1.0911256E-1,3.0219123E-1,-3.1071568E-1,4.8394504E-1,6.1716837E-1,7.49481E-1,3.2492256E-1,-2.7430496E-1,-2.1710166E-1,1.0449572E-1,4.0680192E-2,-3.057741E-1,-4.0145254E-1,4.9017955E-2,-2.7333248E-1,5.9855178E-2,-7.372852E-2,-1.5333353E-1,-1.6148932E-1,4.2355794E-2,-2.6996356E-1,1.22402295E-1,1.8364307E-1,-1.8744183E-1,6.5878846E-2,2.7723914E-1,3.613853E-1,-1.4081527E-2,-1.2574053E-1,4.0094197E-1,5.4382336E-1,5.7405496E-1,9.095128E-1,8.8694715E-1,5.290236E-1,-5.5427875E-2,-8.9473665E-2,-3.7867054E-2,-8.677322E-2,-3.8611714E-2,3.9819516E-2,-1.345121E-1,-2.7121538E-2,-9.0380386E-2,9.93478E-2,-3.114752E-1,-8.001047E-2,-3.5625085E-2,-1.5684832E-2,8.75074E-2,-6.478388E-2,9.4300695E-3,2.690223E-1,-2.0092987E-1,-1.0895044E-2,2.4309559E-2,4.4048097E-2,3.066994E-2,6.104418E-2,-9.272626E-2,-3.469589E-2,6.8052724E-2,9.381829E-2,1.1669185E-1,7.129515E-2,1.363669E-1,6.1539914E-2,1.824119E-1,1.18077174E-1,2.0898487E-1,1.5177345E-1,1.3295503E-1,3.6843437E-1,2.7733865E-1,4.300604E-2,3.9007189E-3,1.8418308E-1],"categories":[],"categories_nodes":[],"categories_segments":[],"categories_sizes":[],"default_left":[0,0,0,0,0,0,0,0,0,0,0,0,0,0,0,0,0,0,0,0,0,0,0,0,0,0,0,0,0,0,0,0,0,0,0,0,0,0,0,0,0,0,0,0,0,0,0,0,0,0,0,0,0,0,0,0,0,0,0,0,0,0,0,0,0,0,0,0,0,0,0,0,0,0,0,0,0,0,0,0,0,0,0,0,0,0,0,0,0,0,0,0,0,0,0,0,0,0,0,0,0],"id":4,"left_children":[1,3,5,7,9,11,13,15,17,19,21,23,25,27,29,31,33,35,37,39,41,43,-1,45,47,49,51,53,55,57,-1,59,61,-1,63,65,-1,67,69,-1,71,-1,73,75,77,79,81,83,-1,85,87,-1,-1,89,91,93,95,97,99,-1,-1,-1,-1,-1,-1,-1,-1,-1,-1,-1,-1,-1,-1,-1,-1,-1,-1,-1,-1,-1,-1,-1,-1,-1,-1,-1,-1,-1,-1,-1,-1,-1,-1,-1,-1,-1,-1,-1,-1,-1,-1],"loss_changes":[1.5156158E2,2.7002365E1,2.760756E1,8.838959E-1,3.4338505E0,5.747322E0,4.4367065E0,4.2082634E0,1.5747681E0,7.8204775E-1,4.907437E-1,4.9765015E-1,1.0305672E0,4.1768265E-1,4.707985E-1,3.3398247E-1,3.42528E-1,5.1596575E0,1.8460808E0,5.1200366E-1,5.313331E-1,1.0430328E0,0E0,4.2276E-1,2.471416E-1,5.8366776E-1,6.6122174E-2,3.5351753E-1,2.3412895E-1,4.3994713E-1,0E0,4.8727036E-1,1.4779644E0,0E0,7.0314145E-1,9.422333E-1,0E0,1.9775405E0,2.877964E0,0E0,6.155896E-1,0E0,6.552815E-1,3.6951976E0,1.0032146E0,2.841668E-1,3.005767E-1,2.5382772E-2,0E0,5.1926804E-1,3.6497498E-1,0E0,0E0,4.5266056E-1,3.781128E-1,1.0692024E-1,3.471594E-1,3.4170532E-1,6.055045E-1,0E0,0E0,0E0,0E0,0E0,0E0,0E0,0E0,0E0,0E0,0E0,0E0,0E0,0E0,0E0,0E0,0E0,0E0,0E0,0E0,0E0,0E0,0E0,0E0,0E0,0E0,0E0,0E0,0E0,0E0,0E0,0E0,0E0,0E0,0E0,0E0,0E0,0E0,0E0,0E0,0E0,0E0],"parents":[2147483647,0,0,1,1,2,2,3,3,4,4,5,5,6,6,7,7,8,8,9,9,10,10,11,11,12,12,13,13,14,14,15,15,16,16,17,17,18,18,19,19,20,20,21,21,23,23,24,24,25,25,26,26,27,27,28,28,29,29,31,31,32,32,34,34,35,35,37,37,38,38,40,40,42,42,43,43,44,44,45,45,46,46,47,47,49,49,50,50,53,53,54,54,55,55,56,56,57,57,58,58],"right_children":[2,4,6,8,10,12,14,16,18,20,22,24,26,28,30,32,34,36,38,40,42,44,-1,46,48,50,52,54,56,58,-1,60,62,-1,64,66,-1,68,70,-1,72,-1,74,76,78,80,82,84,-1,86,88,-1,-1,90,92,94,96,98,100,-1,-1,-1,-1,-1,-1,-1,-1,-1,-1,-1,-1,-1,-1,-1,-1,-1,-1,-1,-1,-1,-1,-1,-1,-1,-1,-1,-1,-1,-1,-1,-1,-1,-1,-1,-1,-1,-1,-1,-1,-1,-1],"split_conditions":[4E0,2E0,1.2E1,9.1E1,3E0,6E0,2.6E1,8E1,1.11E2,2.76E2,2.89E2,2.43E2,2.78E2,1.8E1,4.4E1,4.4E1,8.1E1,1.07E2,1.18E2,2E0,2.84E2,2.43E2,1.1596145E-1,5E0,3.18E2,9E0,3.03E2,9E0,2.3E1,3.2E1,3.2492256E-1,1.3E1,5.9E1,1.0449572E-1,8.5E1,1E2,-4.0145254E-1,1.14E2,1.22E2,5.9855178E-2,3E1,-1.5333353E-1,2.95E2,2.2E2,2.54E2,2.2E1,8E0,2.68E2,6.5878846E-2,1.7E1,3.7E1,-1.4081527E-2,-1.2574053E-1,5E0,2.6E1,3E0,2.1E1,1E1,3.3E1,-5.5427875E-2,-8.9473665E-2,-3.7867054E-2,-8.677322E-2,-3.8611714E-2,3.9819516E-2,-1.345121E-1,-2.7121538E-2,-9.0380386E-2,9.93478E-2,-3.114752E-1,-8.001047E-2,-3.5625085E-2,-1.5684832E-2,8.75074E-2,-6.478388E-2,9.4300695E-3,2.690223E-1,-2.0092987E-1,-1.0895044E-2,2.4309559E-2,4.4048097E-2,3.066994E-2,6.104418E-2,-9.272626E-2,-3.469589E-2,6.8052724E-2,9.381829E-2,1.1669185E-1,7.129515E-2,1.363669E-1,6.1539914E-2,1.824119E-1,1.18077174E-1,2.0898487E-1,1.5177345E-1,1.3295503E-1,3.6843437E-1,2.7733865E-1,4.300604E-2,3.9007189E-3,1.8418308E-1],"split_indices":[1,1,1,0,1,1,1,0,0,0,0,0,0,1,1,0,0,0,0,0,0,0,0,1,0,1,0,0,0,1,0,0,0,0,0,0,0,0,0,0,0,0,0,0,0,0,0,0,0,0,0,0,0,0,0,0,1,0,1,0,0,0,0,0,0,0,0,0,0,0,0,0,0,0,0,0,0,0,0,0,0,0,0,0,0,0,0,0,0,0,0,0,0,0,0,0,0,0,0,0,0],"split_type":[0,0,0,0,0,0,0,0,0,0,0,0,0,0,0,0,0,0,0,0,0,0,0,0,0,0,0,0,0,0,0,0,0,0,0,0,0,0,0,0,0,0,0,0,0,0,0,0,0,0,0,0,0,0,0,0,0,0,0,0,0,0,0,0,0,0,0,0,0,0,0,0,0,0,0,0,0,0,0,0,0,0,0,0,0,0,0,0,0,0,0,0,0,0,0,0,0,0,0,0,0],"sum_hessian":[3.471E3,2.291E3,1.18E3,1.203E3,1.088E3,9.61E2,2.19E2,5.28E2,6.75E2,6.77E2,4.11E2,4.97E2,4.64E2,1.73E2,4.6E1,4.82E2,4.6E1,3.6E1,6.39E2,6.49E2,2.8E1,4.08E2,3E0,4.9E2,7E0,4.62E2,2E0,1.14E2,5.9E1,2.9E1,1.7E1,2.52E2,2.3E2,3E0,4.3E1,3.1E1,5E0,1.8E1,6.21E2,6E0,6.43E2,5E0,2.3E1,3.98E2,1E1,2.92E2,1.98E2,6E0,1E0,3.29E2,1.33E2,1E0,1E0,5.1E1,6.3E1,5.4E1,5E0,1.6E1,1.3E1,5.5E1,1.97E2,1.03E2,1.27E2,1.5E1,2.8E1,1.8E1,1.3E1,8E0,1E1,4E0,6.17E2,2.06E2,4.37E2,2E0,2.1E1,3.94E2,4E0,3E0,7E0,1.1E2,1.82E2,4E1,1.58E2,1E0,5E0,1.39E2,1.9E2,1.07E2,2.6E1,3.9E1,1.2E1,4.2E1,2.1E1,1.6E1,3.8E1,3E0,2E0,1.5E1,1E0,2E0,1.1E1],"tree_param":{"num_deleted":"0","num_feature":"2","num_nodes":"101","size_leaf_vector":"1"}},{"base_weights":[1.2996048E-3,-1.04545146E-1,2.067144E-1,-1.7723641E-1,-2.4081586E-2,1.535045E-1,4.3844715E-1,-1.5419003E-1,-1.953132E-1,-5.4927804E-2,2.6738359E-2,1.1320984E-1,2.317689E-1,3.8068494E-1,6.4296156E-1,-1.738183E-1,3.1091662E-2,-3.8486204E-1,-1.8553057E-1,-5.2180093E-2,-1.2430003E-1,4.0016662E-2,-3.8707312E-2,1.22527905E-1,-4.1205484E-2,2.2412656E-1,5.0753605E-1,3.2099545E-1,4.3039736E-1,5.367226E-1,7.7127576E-1,-2.4806584E-1,-1.5999359E-1,1.6100334E-1,-2.5926674E-2,-2.3310362E-1,-3.0108938E-1,2.2260791E-1,-1.8814339E-1,3.5484746E-2,-6.2075626E-2,3.142196E-2,4.4807366E-1,-1.5295762E-1,-1.0001147E-2,1.0625281E-1,1.7899778E-1,-2.571821E-1,5.2762297E-3,2.2828098E-1,-2.8956556E-1,1.7743218E-1,-1.1969305E-2,1.1176391E-1,3.449322E-1,3.8477027E-1,5.580849E-1,6.140413E-1,2.060006E-1,6.002484E-1,3.3903083E-1,-3.90964E-2,-1.7461386E-1,-4.1972816E-2,-6.0944576E-2,2.0510774E-2,2.3257722E-1,-2.2322826E-1,1.7797852E-2,-9.77366E-2,8.3240755E-3,-2.0748228E-2,-5.9112236E-2,4.4463895E-2,6.718841E-3,-4.559078E-2,-1.2549945E-2,1.2906273E-2,-3.1003365E-2,1.537542E-1,5.7394553E-2,1.1758485E-1,-1.2522973E-2,3.0839298E-2,1.4466453E-1,4.999721E-2,1.3847438E-1,2.1264888E-2,-6.9962315E-2,7.087453E-2,2.4842488E-2,-1.254887E-1,-4.815817E-3,2.3078967E-2,6.3790515E-2,1.0929543E-1,4.1837707E-2,1.2089613E-1,5.728183E-2,1.7468679E-1,7.468987E-3,1.9210593E-1,6.755362E-2,7.109966E-2,3.0016424E-3,2.5560796E-1,5.7235174E-2],"categories":[],"categories_nodes":[],"categories_segments":[],"categories_sizes":[],"default_left":[0,0,0,0,0,0,0,0,0,0,0,0,0,0,0,0,0,0,0,0,0,0,0,0,0,0,0,0,0,0,0,0,0,0,0,0,0,0,0,0,0,0,0,0,0,0,0,0,0,0,0,0,0,0,0,0,0,0,0,0,0,0,0,0,0,0,0,0,0,0,0,0,0,0,0,0,0,0,0,0,0,0,0,0,0,0,0,0,0,0,0,0,0,0,0,0,0,0,0,0,0,0,0,0,0,0,0],"id":5,"left_children":[1,3,5,7,9,11,13,15,17,19,21,23,25,27,29,31,33,35,37,39,-1,41,43,45,47,49,51,53,55,57,59,61,63,65,67,69,-1,-1,71,73,75,77,79,-1,81,83,85,-1,87,89,91,-1,-1,93,95,97,99,101,103,105,-1,-1,-1,-1,-1,-1,-1,-1,-1,-1,-1,-1,-1,-1,-1,-1,-1,-1,-1,-1,-1,-1,-1,-1,-1,-1,-1,-1,-1,-1,-1,-1,-1,-1,-1,-1,-1,-1,-1,-1,-1,-1,-1,-1,-1,-1,-1],"loss_changes":[7.55101E1,1.3401632E1,1.44949875E1,4.714775E-1,1.7085885E0,3.0075626E0,2.3541412E0,1.9474344E0,1.172823E0,6.479335E-1,3.5958E-1,9.2159843E-1,5.732937E-1,3.7815666E-1,2.2674179E-1,4.560871E-1,3.8935634E-1,2.7709599E0,1.6906643E0,5.868914E-1,0E0,1.1888661E0,9.4164735E-1,5.333309E-1,1.4080162E0,7.468777E-1,3.9105415E-1,3.771391E-1,3.2125664E-1,6.150656E-1,4.8767376E-1,2.834149E0,3.2693863E-1,8.574101E-1,2.3094997E0,6.618171E-1,0E0,0E0,6.628399E-1,9.848704E-2,1.0963628E0,5.312275E-1,1.7767549E-2,0E0,8.7119776E-1,5.5966425E-1,3.868723E-1,0E0,5.797919E-1,3.478527E-1,9.891316E-2,0E0,0E0,1.8779472E-2,2.4395561E-1,1.7375469E-1,2.6942348E-1,9.113407E-2,4.015729E-2,1.3838596E0,0E0,0E0,0E0,0E0,0E0,0E0,0E0,0E0,0E0,0E0,0E0,0E0,0E0,0E0,0E0,0E0,0E0,0E0,0E0,0E0,0E0,0E0,0E0,0E0,0E0,0E0,0E0,0E0,0E0,0E0,0E0,0E0,0E0,0E0,0E0,0E0,0E0,0E0,0E0,0E0,0E0,0E0,0E0,0E0,0E0,0E0,0E0],"parents":[2147483647,0,0,1,1,2,2,3,3,4,4,5,5,6,6,7,7,8,8,9,9,10,10,11,11,12,12,13,13,14,14,15,15,16,16,17,17,18,18,19,19,21,21,22,22,23,23,24,24,25,25,26,26,27,27,28,28,29,29,30,30,31,31,32,32,33,33,34,34,35,35,38,38,39,39,40,40,41,41,42,42,44,44,45,45,46,46,48,48,49,49,50,50,53,53,54,54,55,55,56,56,57,57,58,58,59,59],"right_children":[2,4,6,8,10,12,14,16,18,20,22,24,26,28,30,32,34,36,38,40,-1,42,44,46,48,50,52,54,56,58,60,62,64,66,68,70,-1,-1,72,74,76,78,80,-1,82,84,86,-1,88,90,92,-1,-1,94,96,98,100,102,104,106,-1,-1,-1,-1,-1,-1,-1,-1,-1,-1,-1,-1,-1,-1,-1,-1,-1,-1,-1,-1,-1,-1,-1,-1,-1,-1,-1,-1,-1,-1,-1,-1,-1,-1,-1,-1,-1,-1,-1,-1,-1,-1,-1,-1,-1,-1,-1],"split_conditions":[4E0,2E0,1.2E1,9.4E1,3E0,7E0,2.6E1,8E1,1.11E2,3.37E2,1.37E2,1.43E2,1.57E2,8E0,4.1E1,1.8E1,8.4E1,1.07E2,1.12E2,1E1,-1.2430003E-1,1.31E2,1.42E2,6E0,1.44E2,1.27E2,2.78E2,1.3E1,1.9E1,3.7E1,5E0,1.3E1,5.9E1,8.3E1,8.5E1,1.05E2,-3.0108938E-1,2.2260791E-1,1.33E2,2E0,2.4E1,1.02E2,1.35E2,-1.5295762E-1,1.49E2,1.38E2,1.14E2,-2.571821E-1,6E0,6.8E1,1.28E2,1.7743218E-1,-1.1969305E-2,6E0,6E0,6.7E1,3.4E1,1E1,5E0,3E0,3.3903083E-1,-3.90964E-2,-1.7461386E-1,-4.1972816E-2,-6.0944576E-2,2.0510774E-2,2.3257722E-1,-2.2322826E-1,1.7797852E-2,-9.77366E-2,8.3240755E-3,-2.0748228E-2,-5.9112236E-2,4.4463895E-2,6.718841E-3,-4.559078E-2,-1.2549945E-2,1.2906273E-2,-3.1003365E-2,1.537542E-1,5.7394553E-2,1.1758485E-1,-1.2522973E-2,3.0839298E-2,1.4466453E-1,4.999721E-2,1.3847438E-1,2.1264888E-2,-6.9962315E-2,7.087453E-2,2.4842488E-2,-1.254887E-1,-4.815817E-3,2.3078967E-2,6.3790515E-2,1.0929543E-1,4.1837707E-2,1.2089613E-1,5.728183E-2,1.7468679E-1,7.468987E-3,1.9210593E-1,6.755362E-2,7.109966E-2,3.0016424E-3,2.5560796E-1,5.7235174E-2],"split_indices":[1,1,1,0,1,1,1,0,0,0,0,0,0,0,1,0,0,0,0,0,0,0,0,1,0,0,0,1,1,1,0,0,0,0,0,0,0,0,0,0,0,0,0,0,0,0,0,0,1,0,0,0,0,0,0,0,0,0,0,0,0,0,0,0,0,0,0,0,0,0,0,0,0,0,0,0,0,0,0,0,0,0,0,0,0,0,0,0,0,0,0,0,0,0,0,0,0,0,0,0,0,0,0,0,0,0,0],"split_type":[0,0,0,0,0,0,0,0,0,0,0,0,0,0,0,0,0,0,0,0,0,0,0,0,0,0,0,0,0,0,0,0,0,0,0,0,0,0,0,0,0,0,0,0,0,0,0,0,0,0,0,0,0,0,0,0,0,0,0,0,0,0,0,0,0,0,0,0,0,0,0,0,0,0,0,0,0,0,0,0,0,0,0,0,0,0,0,0,0,0,0,0,0,0,0,0,0,0,0,0,0,0,0,0,0,0,0],"sum_hessian":[3.471E3,2.291E3,1.18E3,1.203E3,1.088E3,9.61E2,2.19E2,5.33E2,6.7E2,6.77E2,4.11E2,6.36E2,3.25E2,1.73E2,4.6E1,4.82E2,5.1E1,3.1E1,6.39E2,6.73E2,4E0,3.42E2,6.9E1,6E2,3.6E1,3.18E2,7E0,8.2E1,9.1E1,2.8E1,1.8E1,7.3E1,4.09E2,1.5E1,3.6E1,2.6E1,5E0,1E0,6.38E2,6.8E1,6.05E2,3.36E2,6E0,3E0,6.6E1,4.68E2,1.32E2,1E0,3.5E1,3.16E2,2E0,6E0,1E0,9E0,7.3E1,7E1,2.1E1,2.2E1,6E0,1.4E1,4E0,5.5E1,1.8E1,2.82E2,1.27E2,1.4E1,1E0,3E0,3.3E1,1.9E1,7E0,4.5E1,5.93E2,6E0,6.2E1,1.1E2,4.95E2,3.1E2,2.6E1,4E0,2E0,4E0,6.2E1,4.65E2,3E0,1.28E2,4E0,2.8E1,7E0,2.99E2,1.7E1,1E0,1E0,8E0,1E0,6.6E1,7E0,6.3E1,7E0,2E1,1E0,2E1,2E0,5E0,1E0,8E0,6E0],"tree_param":{"num_deleted":"0","num_feature":"2","num_nodes":"107","size_leaf_vector":"1"}},{"base_weights":[1.275471E-3,-7.340103E-2,1.4620118E-1,-1.2449478E-1,-1.6844288E-2,1.02915056E-1,2.998957E-1,-1.2081044E-1,-2.2116257E-1,2.3260875E-5,-7.089868E-2,7.040372E-2,1.4067967E-1,2.623136E-1,4.8257992E-1,-1.24585375E-1,-6.279003E-2,-8.735736E-2,-3.7821032E-2,-1.7535381E-2,7.6714724E-2,-1.3737437E-1,4.876262E-3,8.150258E-2,1.5517465E-2,1.4301872E-1,-2.3679781E-1,2.3538424E-1,3.2301372E-1,3.9594546E-1,5.9178877E-1,-1.2116019E-1,-1.447168E-1,8.433582E-2,-1.56579E-1,6.2735993E-3,-5.8485247E-2,3.119336E-1,4.3533165E-2,-1.0167848E-1,-3.8546395E-1,1.335423E-1,-8.038742E-2,5.8641154E-2,1.4822201E-1,-8.5804336E-2,3.0037101E-2,1.4001606E-1,1.5531598E-1,-1.0173941E-2,-9.638508E-2,1.9618016E-1,2.7511594E-1,2.891144E-1,6.025217E-1,4.609255E-1,2.1477143E-1,4.4203526E-1,2.9039362E-1,-3.75895E-2,1.3506461E-2,-5.9892315E-2,-5.9475233E-3,-4.4520954E-3,3.9448116E-2,-6.1149683E-2,-2.761595E-3,1.5508676E-2,1.07249185E-1,-1.2721528E-1,1.7149808E-2,-3.879086E-2,6.619345E-2,-8.711897E-2,-1.8655019E-1,3.6585086E-3,1.2233494E-1,-7.2557814E-2,-1.0570775E-2,2.1477876E-2,-1.3177118E-1,6.797361E-2,2.4987016E-2,8.117606E-2,5.2431454E-3,4.5222633E-2,1.4041754E-2,6.7914836E-2,1.4458933E-2,1.7758395E-1,5.93672E-2,9.5575266E-2,3.9466955E-2,6.37358E-2,2.76532E-1,1.5550728E-1,5.893324E-2,7.184751E-2,2.551389E-3,1.9486557E-1,4.2517662E-2],"categories":[],"categories_nodes":[],"categories_segments":[],"categories_sizes":[],"default_left":[0,0,0,0,0,0,0,0,0,0,0,0,0,0,0,0,0,0,0,0,0,0,0,0,0,0,0,0,0,0,0,0,0,0,0,0,0,0,0,0,0,0,0,0,0,0,0,0,0,0,0,0,0,0,0,0,0,0,0,0,0,0,0,0,0,0,0,0,0,0,0,0,0,0,0,0,0,0,0,0,0,0,0,0,0,0,0,0,0,0,0,0,0,0,0,0,0,0,0,0,0],"id":6,"left_children":[1,3,5,7,9,11,13,15,17,19,21,23,25,27,29,31,33,-1,-1,35,37,39,41,43,45,47,49,51,53,55,57,59,-1,-1,61,63,65,67,69,71,73,75,77,79,81,-1,83,85,-1,-1,-1,87,89,91,93,95,97,99,-1,-1,-1,-1,-1,-1,-1,-1,-1,-1,-1,-1,-1,-1,-1,-1,-1,-1,-1,-1,-1,-1,-1,-1,-1,-1,-1,-1,-1,-1,-1,-1,-1,-1,-1,-1,-1,-1,-1,-1,-1,-1,-1],"loss_changes":[3.75866E1,6.621087E0,7.8261414E0,4.020958E-1,9.929137E-1,1.1233358E0,1.6516151E0,2.4668503E-1,2.4963498E-1,1.120368E0,1.3053025E0,3.0210447E-1,4.0999603E-1,2.7867985E-1,1.7251778E-1,1.2773972E0,2.3986259E0,0E0,0E0,6.604247E-1,1.1961846E0,1.1829038E0,1.349141E0,6.2278295E-1,3.8073242E-1,4.045534E-1,4.0526867E-2,1.859045E-1,4.3221092E-1,2.1886969E-1,5.298271E-1,7.490282E-1,0E0,0E0,3.3759844E-1,1.1361791E0,1.7816336E0,2.068094E-1,8.9754903E-1,1.1148155E0,2.0142984E-1,1.6256673E0,5.3098977E-1,2.030452E0,5.153525E-1,0E0,2.4301693E-1,4.1485023E-1,0E0,0E0,0E0,3.5111833E-1,1.6934419E0,2.3203754E-1,5.5134773E-1,1.8677616E-1,4.385397E-2,7.8041124E-1,0E0,0E0,0E0,0E0,0E0,0E0,0E0,0E0,0E0,0E0,0E0,0E0,0E0,0E0,0E0,0E0,0E0,0E0,0E0,0E0,0E0,0E0,0E0,0E0,0E0,0E0,0E0,0E0,0E0,0E0,0E0,0E0,0E0,0E0,0E0,0E0,0E0,0E0,0E0,0E0,0E0,0E0,0E0],"parents":[2147483647,0,0,1,1,2,2,3,3,4,4,5,5,6,6,7,7,8,8,9,9,10,10,11,11,12,12,13,13,14,14,15,15,16,16,19,19,20,20,21,21,22,22,23,23,24,24,25,25,26,26,27,27,28,28,29,29,30,30,31,31,34,34,35,35,36,36,37,37,38,38,39,39,40,40,41,41,42,42,43,43,44,44,46,46,47,47,51,51,52,52,53,53,54,54,55,55,56,56,57,57],"right_children":[2,4,6,8,10,12,14,16,18,20,22,24,26,28,30,32,34,-1,-1,36,38,40,42,44,46,48,50,52,54,56,58,60,-1,-1,62,64,66,68,70,72,74,76,78,80,82,-1,84,86,-1,-1,-1,88,90,92,94,96,98,100,-1,-1,-1,-1,-1,-1,-1,-1,-1,-1,-1,-1,-1,-1,-1,-1,-1,-1,-1,-1,-1,-1,-1,-1,-1,-1,-1,-1,-1,-1,-1,-1,-1,-1,-1,-1,-1,-1,-1,-1,-1,-1,-1],"split_conditions":[4E0,2E0,1.1E1,3.67E2,1.37E2,6E0,2.8E1,3.26E2,3.73E2,7.7E1,2.06E2,8.1E1,2.78E2,1.8E1,4.5E1,3.21E2,3.33E2,-8.735736E-2,-3.7821032E-2,3.7E1,8.1E1,1.98E2,2.39E2,4.2E1,8.3E1,2.15E2,3.03E2,1.2E1,2.3E1,3.7E1,5E0,3.12E2,-1.447168E-1,8.433582E-2,3.65E2,3E1,4.6E1,7.8E1,8.2E1,1.95E2,3E0,2.26E2,2.54E2,4E1,5.8E1,-8.5804336E-2,8.6E1,6.8E1,1.5531598E-1,-1.0173941E-2,-9.638508E-2,1.6E1,1.7E1,1.2E1,2.1E1,5E0,9E0,3E0,2.9039362E-1,-3.75895E-2,1.3506461E-2,-5.9892315E-2,-5.9475233E-3,-4.4520954E-3,3.9448116E-2,-6.1149683E-2,-2.761595E-3,1.5508676E-2,1.07249185E-1,-1.2721528E-1,1.7149808E-2,-3.879086E-2,6.619345E-2,-8.711897E-2,-1.8655019E-1,3.6585086E-3,1.2233494E-1,-7.2557814E-2,-1.0570775E-2,2.1477876E-2,-1.3177118E-1,6.797361E-2,2.4987016E-2,8.117606E-2,5.2431454E-3,4.5222633E-2,1.4041754E-2,6.7914836E-2,1.4458933E-2,1.7758395E-1,5.93672E-2,9.5575266E-2,3.9466955E-2,6.37358E-2,2.76532E-1,1.5550728E-1,5.893324E-2,7.184751E-2,2.551389E-3,1.9486557E-1,4.2517662E-2],"split_indices":[1,1,1,0,0,1,1,0,0,0,0,0,0,1,1,0,0,0,0,0,0,0,0,0,0,0,0,0,0,1,0,0,0,0,0,0,0,0,0,0,1,0,0,0,0,0,0,0,0,0,0,1,0,0,1,0,0,0,0,0,0,0,0,0,0,0,0,0,0,0,0,0,0,0,0,0,0,0,0,0,0,0,0,0,0,0,0,0,0,0,0,0,0,0,0,0,0,0,0,0,0],"split_type":[0,0,0,0,0,0,0,0,0,0,0,0,0,0,0,0,0,0,0,0,0,0,0,0,0,0,0,0,0,0,0,0,0,0,0,0,0,0,0,0,0,0,0,0,0,0,0,0,0,0,0,0,0,0,0,0,0,0,0,0,0,0,0,0,0,0,0,0,0,0,0,0,0,0,0,0,0,0,0,0,0,0,0,0,0,0,0,0,0,0,0,0,0,0,0,0,0,0,0,0,0],"sum_hessian":[3.471E3,2.291E3,1.18E3,1.203E3,1.088E3,9.22E2,2.58E2,1.161E3,4.2E1,8.3E2,2.58E2,4.97E2,4.25E2,2.16E2,4.2E1,1.089E3,7.2E1,2.3E1,1.9E1,6.76E2,1.54E2,1.37E2,1.21E2,4.13E2,8.4E1,4.23E2,2E0,1.53E2,6.3E1,2.6E1,1.6E1,1.08E3,9E0,1.5E1,5.7E1,4.28E2,2.48E2,1.8E1,1.36E2,1.21E2,1.6E1,4.8E1,7.3E1,3.09E2,1.04E2,3E0,8.1E1,4.21E2,2E0,1E0,1E0,8E1,7.3E1,5.8E1,5E0,1.8E1,8E0,1.3E1,3E0,1.054E3,2.6E1,4.3E1,1.4E1,3.67E2,6.1E1,6.2E1,1.86E2,3E0,1.5E1,3E0,1.33E2,1.12E2,9E0,1.3E1,3E0,3.4E1,1.4E1,1.5E1,5.8E1,3.02E2,7E0,4.6E1,5.8E1,3E0,7.8E1,3.77E2,4.4E1,6.6E1,1.4E1,1.3E1,6E1,4.8E1,1E1,3E0,2E0,1.4E1,4E0,7E0,1E0,7E0,6E0],"tree_param":{"num_deleted":"0","num_feature":"2","num_nodes":"101","size_leaf_vector":"1"}},{"base_weights":[1.2405963E-3,-6.782057E-2,8.283784E-2,-8.737511E-2,-3.2995354E-2,5.4103497E-2,2.074289E-1,-7.584296E-2,-1.085654E-1,-2.071677E-2,-8.089188E-2,2.7203117E-2,8.640174E-2,1.8152945E-1,3.5679704E-1,-8.443134E-2,4.0193516E-1,-4.730948E-1,-9.0205215E-2,-2.760974E-2,2.8544915E-1,-4.0925458E-1,-3.4473367E-2,2.5442304E-2,9.922368E-2,8.882639E-2,-2.8980386E-1,1.4862566E-1,2.2454074E-1,3.6798236E-1,-1.6947985E-2,-8.2613856E-2,-2.2231151E-1,1.7304552E-1,-8.465481E-3,-3.446286E-2,-1.8552348E-1,2.1986322E-1,-9.386471E-2,-2.0595204E-2,-1.96648E-1,2.2021252E-1,1.7793694E-1,-2.722178E-1,-2.359709E-1,-2.2657353E-2,-3.0643663E-1,2.9197926E-2,-1.4926282E-1,6.105667E-2,1.0564132E-1,-1.09086946E-1,-1.0251904E-2,1.8892656E-1,8.463064E-2,1.7265347E-1,4.4680643E-1,3.089913E-1,6.1879605E-1,-2.5890937E-2,9.939548E-2,1.1176951E-1,2.6563955E-2,-2.5772981E-2,-4.7317483E-2,-1.1917562E-2,8.77827E-3,-1.7830007E-1,-2.0434242E-2,3.1935677E-2,9.992362E-2,-1.01544894E-1,-4.7279384E-2,-1.0318103E-2,9.6127875E-2,-4.9091224E-2,-1.3164504E-1,7.263069E-3,1.5393257E-1,-1.3657744E-1,-1.0447741E-2,3.5175573E-2,-7.981342E-2,7.329109E-2,2.4813084E-2,3.8470022E-2,1.22693464E-1,4.0703088E-2,-9.4185896E-2,2.7166309E-2,6.697558E-2,2.0823881E-1,5.440459E-2,1.0892033E-1,-2.9668868E-2,2.7672797E-1,-2.805605E-2],"categories":[],"categories_nodes":[],"categories_segments":[],"categories_sizes":[],"default_left":[0,0,0,0,0,0,0,0,0,0,0,0,0,0,0,0,0,0,0,0,0,0,0,0,0,0,0,0,0,0,0,0,0,0,0,0,0,0,0,0,0,0,0,0,0,0,0,0,0,0,0,0,0,0,0,0,0,0,0,0,0,0,0,0,0,0,0,0,0,0,0,0,0,0,0,0,0,0,0,0,0,0,0,0,0,0,0,0,0,0,0,0,0,0,0,0,0],"id":7,"left_children":[1,3,5,7,9,11,13,15,17,19,21,23,25,27,29,31,33,35,37,39,41,43,45,47,-1,49,51,53,55,57,-1,59,-1,-1,-1,-1,-1,61,63,65,67,-1,69,71,-1,73,75,77,79,81,83,-1,-1,85,87,89,91,93,95,-1,-1,-1,-1,-1,-1,-1,-1,-1,-1,-1,-1,-1,-1,-1,-1,-1,-1,-1,-1,-1,-1,-1,-1,-1,-1,-1,-1,-1,-1,-1,-1,-1,-1,-1,-1,-1,-1],"loss_changes":[1.9571033E1,1.2780619E0,5.688205E0,2.859869E-1,3.97057E-1,1.1227908E0,1.0880585E0,3.2468505E0,2.7816968E0,1.1496036E0,2.0893025E0,3.6999792E-1,5.620966E-1,3.28928E-1,2.1956825E-1,8.5767746E-1,1.0694492E0,9.700632E-1,4.779184E-1,6.2438416E-1,4.4813693E-1,6.648841E-1,3.8510662E-1,4.6692717E-1,0E0,2.6671362E-1,6.305581E-2,3.6571145E-1,1.1799283E0,4.3021965E-1,0E0,1.2029381E0,0E0,0E0,0E0,0E0,0E0,6.727216E-2,1.8913937E-1,4.8757356E-1,1.0329548E0,0E0,8.653587E-2,5.298996E-2,0E0,4.861523E-1,2.2712082E-2,1.6553745E0,5.094031E-1,4.1302776E0,1.1340141E0,0E0,0E0,1.1495616E0,1.2430235E0,3.536513E-1,1.1871967E0,8.2996225E-1,1.6002319E0,0E0,0E0,0E0,0E0,0E0,0E0,0E0,0E0,0E0,0E0,0E0,0E0,0E0,0E0,0E0,0E0,0E0,0E0,0E0,0E0,0E0,0E0,0E0,0E0,0E0,0E0,0E0,0E0,0E0,0E0,0E0,0E0,0E0,0E0,0E0,0E0,0E0,0E0],"parents":[2147483647,0,0,1,1,2,2,3,3,4,4,5,5,6,6,7,7,8,8,9,9,10,10,11,11,12,12,13,13,14,14,15,15,16,16,17,17,18,18,19,19,20,20,21,21,22,22,23,23,25,25,26,26,27,27,28,28,29,29,31,31,37,37,38,38,39,39,40,40,42,42,43,43,45,45,46,46,47,47,48,48,49,49,50,50,53,53,54,54,55,55,56,56,57,57,58,58],"right_children":[2,4,6,8,10,12,14,16,18,20,22,24,26,28,30,32,34,36,38,40,42,44,46,48,-1,50,52,54,56,58,-1,60,-1,-1,-1,-1,-1,62,64,66,68,-1,70,72,-1,74,76,78,80,82,84,-1,-1,86,88,90,92,94,96,-1,-1,-1,-1,-1,-1,-1,-1,-1,-1,-1,-1,-1,-1,-1,-1,-1,-1,-1,-1,-1,-1,-1,-1,-1,-1,-1,-1,-1,-1,-1,-1,-1,-1,-1,-1,-1,-1],"split_conditions":[3E0,2E0,1E1,2.14E2,1.73E2,5E0,2.8E1,2.1E2,2.2E2,1.68E2,1.89E2,3.09E2,3.03E2,1.5E1,2.1E2,2.08E2,2.13E2,2.17E2,2.25E2,1.55E2,1.69E2,1.86E2,3.37E2,2.43E2,9.922368E-2,1.6E1,3.12E2,1.8E1,2E1,6.3E1,-1.6947985E-2,2.06E2,-2.2231151E-1,1.7304552E-1,-8.465481E-3,-3.446286E-2,-1.8552348E-1,2.21E2,3.67E2,6.7E1,1.57E2,2.2021252E-1,1.71E2,1.78E2,-2.359709E-1,3.26E2,3.61E2,2.2E2,2.54E2,1.2E1,1.9E1,-1.09086946E-1,-1.0251904E-2,1.2E1,1.4E1,4E0,2.6E1,5.5E1,4E0,-2.5890937E-2,9.939548E-2,1.1176951E-1,2.6563955E-2,-2.5772981E-2,-4.7317483E-2,-1.1917562E-2,8.77827E-3,-1.7830007E-1,-2.0434242E-2,3.1935677E-2,9.992362E-2,-1.01544894E-1,-4.7279384E-2,-1.0318103E-2,9.6127875E-2,-4.9091224E-2,-1.3164504E-1,7.263069E-3,1.5393257E-1,-1.3657744E-1,-1.0447741E-2,3.5175573E-2,-7.981342E-2,7.329109E-2,2.4813084E-2,3.8470022E-2,1.22693464E-1,4.0703088E-2,-9.4185896E-2,2.7166309E-2,6.697558E-2,2.0823881E-1,5.440459E-2,1.0892033E-1,-2.9668868E-2,2.7672797E-1,-2.805605E-2],"split_indices":[1,1,1,0,0,1,1,0,0,0,0,0,0,1,1,0,0,0,0,0,0,0,0,0,0,0,0,0,0,1,0,0,0,0,0,0,0,0,0,0,0,0,0,0,0,0,0,0,0,0,0,0,0,0,1,0,0,1,0,0,0,0,0,0,0,0,0,0,0,0,0,0,0,0,0,0,0,0,0,0,0,0,0,0,0,0,0,0,0,0,0,0,0,0,0,0,0],"split_type":[0,0,0,0,0,0,0,0,0,0,0,0,0,0,0,0,0,0,0,0,0,0,0,0,0,0,0,0,0,0,0,0,0,0,0,0,0,0,0,0,0,0,0,0,0,0,0,0,0,0,0,0,0,0,0,0,0,0,0,0,0,0,0,0,0,0,0,0,0,0,0,0,0,0,0,0,0,0,0,0,0,0,0,0,0,0,0,0,0,0,0,0,0,0,0,0,0],"sum_hessian":[3.471E3,1.88E3,1.591E3,1.203E3,6.77E2,1.294E3,2.97E2,7.82E2,4.21E2,5.4E2,1.37E2,7.07E2,5.87E2,2.55E2,4.2E1,7.69E2,1.3E1,1.9E1,4.02E2,5.29E2,1.1E1,1.6E1,1.21E2,7.04E2,3E0,5.84E2,3E0,1.47E2,1.08E2,4.1E1,1E0,7.68E2,1E0,9E0,4E0,6E0,1.3E1,4E0,3.98E2,5.09E2,2E1,1E0,1E1,1.3E1,3E0,1.17E2,4E0,6.9E2,1.4E1,2.22E2,3.62E2,2E0,1E0,8.9E1,5.8E1,8.9E1,1.9E1,3.5E1,6E0,7.62E2,6E0,1E0,3E0,3.56E2,4.2E1,3.68E2,1.41E2,4E0,1.6E1,8E0,2E0,7E0,6E0,1.14E2,3E0,3E0,1E0,6.84E2,6E0,3E0,1.1E1,1.9E2,3.2E1,5E1,3.12E2,7.1E1,1.8E1,5.2E1,6E0,3.5E1,5.4E1,9E0,1E1,3.1E1,4E0,4E0,2E0],"tree_param":{"num_deleted":"0","num_feature":"2","num_nodes":"97","size_leaf_vector":"1"}},{"base_weights":[9.704682E-4,-4.7723465E-2,5.8503333E-2,-6.1278053E-2,-2.3582688E-2,4.2615827E-2,1.7481631E-1,-4.4577412E-2,-7.42564E-2,4.171384E-2,-3.093003E-2,2.8412461E-2,8.4425725E-2,1.5588358E-1,3.5942873E-1,-6.970063E-2,4.547076E-2,-2.02004E-1,-6.504295E-2,2.4868172E-2,3.589753E-2,-1.5997185E-1,-2.4446966E-2,3.8975134E-2,-1.495038E-2,5.9998065E-2,1.3620886E-1,1.6468042E-1,6.443758E-2,2.2576788E-1,2.2121538E-1,-5.5165485E-2,-2.3584378E-1,1.5548299E-1,1.4969744E-2,-1.04166955E-1,-4.1120267E-1,1.2384632E-1,-7.105554E-2,9.975048E-2,1.0188262E-3,-1.2039973E-1,-7.035965E-2,1.2358924E-1,-2.8179852E-2,3.6240257E-2,1.2433506E-1,-3.2060716E-1,3.9359364E-3,6.97701E-2,-2.357766E-1,1.4093351E-1,1.1965789E-1,1.5176582E-1,5.320967E-1,-2.3848164E-1,1.4638326E-1,3.7119257E-1,2.7315686E-2,-1.7478015E-2,1.6857928E-1,-4.675932E-2,-8.815024E-2,-3.7400965E-2,1.9950993E-2,-5.9583917E-2,9.435112E-3,-2.0994698E-1,-5.192994E-2,-1.2822916E-1,-1.989819E-2,3.723965E-2,1.9784315E-2,-1.7423976E-2,1.0688337E-2,-5.4856155E-2,-1.7496396E-2,-3.248878E-2,-5.762068E-3,6.5691834E-3,1.8770052E-2,-4.5182403E-2,-1.8688603E-1,5.391053E-2,-4.817945E-3,1.8195914E-2,3.8431127E-2,-7.683468E-2,-1.4010573E-2,3.057368E-2,8.554452E-2,5.9165437E-2,3.8274117E-2,3.166938E-2,3.3573377E-1,-1.3205981E-1,5.5000737E-2,1.02186136E-1,1.0387903E-2,5.8386326E-3,1.7350154E-1,1.2153218E-1,-1.0719145E-1],"categories":[],"categories_nodes":[],"categories_segments":[],"categories_sizes":[],"default_left":[0,0,0,0,0,0,0,0,0,0,0,0,0,0,0,0,0,0,0,0,0,0,0,0,0,0,0,0,0,0,0,0,0,0,0,0,0,0,0,0,0,0,0,0,0,0,0,0,0,0,0,0,0,0,0,0,0,0,0,0,0,0,0,0,0,0,0,0,0,0,0,0,0,0,0,0,0,0,0,0,0,0,0,0,0,0,0,0,0,0,0,0,0,0,0,0,0,0,0,0,0,0,0],"id":8,"left_children":[1,3,5,7,9,11,13,15,17,19,21,23,25,27,29,31,33,35,37,39,-1,41,43,45,47,49,51,53,55,57,-1,59,61,-1,63,65,67,-1,69,71,73,75,-1,-1,77,79,-1,81,83,85,87,-1,89,91,93,95,97,99,101,-1,-1,-1,-1,-1,-1,-1,-1,-1,-1,-1,-1,-1,-1,-1,-1,-1,-1,-1,-1,-1,-1,-1,-1,-1,-1,-1,-1,-1,-1,-1,-1,-1,-1,-1,-1,-1,-1,-1,-1,-1,-1,-1,-1],"loss_changes":[9.729605E0,6.140528E-1,2.934443E0,2.5765276E-1,3.2656464E-1,8.301668E-1,6.115575E-1,1.199926E0,7.8251004E-1,8.7623306E-2,5.064068E-1,4.805954E-1,4.4088173E-1,1.3016462E-1,6.923263E-1,9.867642E-1,1.6650844E0,8.781986E-1,1.8451962E0,1.03480235E-1,0E0,5.732715E-2,9.597298E-1,8.506379E-1,1.1904444E0,7.1879774E-1,5.676491E-1,6.7370605E-1,4.5689934E-1,3.9389855E-1,0E0,7.622212E-1,1.0725677E-1,0E0,7.998648E-1,4.161193E-1,8.4096E-1,0E0,1.0247922E0,3.3521205E-3,9.4109826E-2,7.075384E-2,0E0,0E0,4.1343164E-1,3.1506014E-1,0E0,5.229615E-1,6.8822706E-1,1.177423E-1,1.8803596E-2,0E0,2.9104364E-1,1.4522767E-1,1.1337667E0,4.2105654E-1,2.9210842E-1,5.7162035E-1,1.1618915E0,0E0,0E0,0E0,0E0,0E0,0E0,0E0,0E0,0E0,0E0,0E0,0E0,0E0,0E0,0E0,0E0,0E0,0E0,0E0,0E0,0E0,0E0,0E0,0E0,0E0,0E0,0E0,0E0,0E0,0E0,0E0,0E0,0E0,0E0,0E0,0E0,0E0,0E0,0E0,0E0,0E0,0E0,0E0,0E0],"parents":[2147483647,0,0,1,1,2,2,3,3,4,4,5,5,6,6,7,7,8,8,9,9,10,10,11,11,12,12,13,13,14,14,15,15,16,16,17,17,18,18,19,19,21,21,22,22,23,23,24,24,25,25,26,26,27,27,28,28,29,29,31,31,32,32,34,34,35,35,36,36,38,38,39,39,40,40,41,41,44,44,45,45,47,47,48,48,49,49,50,50,52,52,53,53,54,54,55,55,56,56,57,57,58,58],"right_children":[2,4,6,8,10,12,14,16,18,20,22,24,26,28,30,32,34,36,38,40,-1,42,44,46,48,50,52,54,56,58,-1,60,62,-1,64,66,68,-1,70,72,74,76,-1,-1,78,80,-1,82,84,86,88,-1,90,92,94,96,98,100,102,-1,-1,-1,-1,-1,-1,-1,-1,-1,-1,-1,-1,-1,-1,-1,-1,-1,-1,-1,-1,-1,-1,-1,-1,-1,-1,-1,-1,-1,-1,-1,-1,-1,-1,-1,-1,-1,-1,-1,-1,-1,-1,-1,-1],"split_conditions":[3E0,2E0,1.3E1,9.1E1,1E1,7E0,4.5E1,6.7E1,1.14E2,9E0,1.3E1,9.1E1,3E1,2.6E1,5E0,6.4E1,6.9E1,1.07E2,1.17E2,3E0,3.589753E-2,1.2E1,1.5E1,8.9E1,9.5E1,2.9E1,3.1E1,2.4E1,3.2E1,3E0,2.2121538E-1,6.3E1,6.5E1,1.5548299E-1,7.5E1,1E2,1.11E2,1.2384632E-1,1.22E2,2E0,5E0,1.1E1,-7.035965E-2,1.2358924E-1,2.1E1,5E0,1.2433506E-1,9.4E1,1.02E2,2.3E1,1.2E1,1.4093351E-1,1.57E2,1.6E1,2.1E1,1.6E1,3.4E1,6.3E1,5.5E1,-1.7478015E-2,1.6857928E-1,-4.675932E-2,-8.815024E-2,-3.7400965E-2,1.9950993E-2,-5.9583917E-2,9.435112E-3,-2.0994698E-1,-5.192994E-2,-1.2822916E-1,-1.989819E-2,3.723965E-2,1.9784315E-2,-1.7423976E-2,1.0688337E-2,-5.4856155E-2,-1.7496396E-2,-3.248878E-2,-5.762068E-3,6.5691834E-3,1.8770052E-2,-4.5182403E-2,-1.8688603E-1,5.391053E-2,-4.817945E-3,1.8195914E-2,3.8431127E-2,-7.683468E-2,-1.4010573E-2,3.057368E-2,8.554452E-2,5.9165437E-2,3.8274117E-2,3.166938E-2,3.3573377E-1,-1.3205981E-1,5.5000737E-2,1.02186136E-1,1.0387903E-2,5.8386326E-3,1.7350154E-1,1.2153218E-1,-1.0719145E-1],"split_indices":[1,1,1,0,0,1,1,0,0,0,0,0,0,0,0,0,0,0,0,0,0,0,0,0,0,0,0,0,0,0,0,0,0,0,0,0,0,0,0,0,0,0,0,0,0,1,0,0,0,0,1,0,0,1,1,1,0,1,1,0,0,0,0,0,0,0,0,0,0,0,0,0,0,0,0,0,0,0,0,0,0,0,0,0,0,0,0,0,0,0,0,0,0,0,0,0,0,0,0,0,0,0,0],"split_type":[0,0,0,0,0,0,0,0,0,0,0,0,0,0,0,0,0,0,0,0,0,0,0,0,0,0,0,0,0,0,0,0,0,0,0,0,0,0,0,0,0,0,0,0,0,0,0,0,0,0,0,0,0,0,0,0,0,0,0,0,0,0,0,0,0,0,0,0,0,0,0,0,0,0,0,0,0,0,0,0,0,0,0,0,0,0,0,0,0,0,0,0,0,0,0,0,0,0,0,0,0,0,0],"sum_hessian":[3.471E3,1.88E3,1.591E3,1.203E3,6.77E2,1.401E3,1.9E2,5.28E2,6.75E2,6.8E1,6.09E2,1.047E3,3.54E2,1.74E2,1.6E1,4.13E2,1.15E2,4.4E1,6.31E2,5.7E1,1.1E1,2.8E1,5.81E2,8.42E2,2.05E2,2.42E2,1.12E2,1.58E2,1.6E1,1.3E1,3E0,3.81E2,3.2E1,6E0,1.09E2,3.1E1,1.3E1,7E0,6.24E2,1.3E1,4.4E1,2E1,8E0,4E0,5.77E2,8.37E2,5E0,1.1E1,1.94E2,2.35E2,7E0,4E0,1.08E2,1.54E2,4E0,3E0,1.3E1,7E0,6E0,3.8E2,1E0,1.5E1,1.7E1,2.9E1,8E1,1.8E1,1.3E1,5E0,8E0,7E0,6.17E2,6E0,7E0,1.6E1,2.8E1,9E0,1.1E1,5.7E1,5.2E2,5.43E2,2.94E2,8E0,3E0,1.9E1,1.75E2,2.05E2,3E1,6E0,1E0,9.9E1,9E0,5.1E1,1.03E2,3E0,1E0,2E0,1E0,4E0,9E0,3E0,4E0,3E0,3E0],"tree_param":{"num_deleted":"0","num_feature":"2","num_nodes":"103","size_leaf_vector":"1"}},{"base_weights":[9.533812E-4,-3.348782E-2,4.1646186E-2,-1.990705E-2,-5.2382268E-2,3.1016791E-2,1.4287758E-1,-2.5101E-2,4.5137164E-1,-8.822741E-2,-3.5792325E-2,1.985679E-2,6.0547587E-2,1.2123604E-1,2.7856788E-1,-2.05846E-2,-1.7307556E-1,2.131551E-1,1.6476536E-1,-6.863666E-2,-1.512238E-1,2.673692E-1,-5.5454135E-2,2.3267578E-2,-5.168603E-2,5.6566615E-2,2.0815834E-1,-9.435405E-3,1.4745611E-1,4.6657634E-1,1.4144208E-1,-2.7465643E-2,3.5569677E-1,-4.216314E-1,-9.9499926E-2,-1.8795062E-2,1.0529688E-1,-9.203543E-2,9.057555E-2,2.9369462E-1,9.9955715E-2,-2.0479502E-1,-4.0464666E-2,2.0655248E-2,3.9126784E-1,-3.4108147E-1,2.3843216E-2,5.930515E-2,-3.1282154E-1,1.3809937E-1,3.432267E-2,1.0727286E-1,-2.4167252E-1,1.2374495E-1,2.6177174E-1,2.4386746E-1,9.620895E-2,-9.4702564E-2,1.9298679E-1,-6.741885E-3,-7.391524E-2,5.918908E-2,1.19452655E-1,-1.8573126E-1,1.4410115E-2,4.3699488E-2,-5.409979E-2,-1.6040755E-2,-6.800799E-2,1.2401379E-1,-1.8081145E-2,5.7466615E-2,1.04555026E-1,-1.6581917E-3,9.410563E-2,-2.2862162E-2,-7.15191E-2,5.4848287E-2,-1.4510012E-2,7.1520563E-3,-5.2713983E-2,7.2188534E-2,1.5357327E-1,-1.1391139E-1,9.790421E-4,4.5522436E-2,-1.8724723E-2,1.671211E-2,7.353945E-2,-1.1707971E-1,-2.3689987E-2,-4.6015836E-2,6.403524E-2,6.913426E-2,-4.0927842E-2,-1.0771695E-1,-2.9829254E-2,2.3177883E-2,4.8153635E-2,5.2282486E-2,1.5733252E-1,-1.0660852E-1,2.8537375E-1,-8.9366846E-2,4.675069E-2,6.915967E-2,2.0894766E-2],"categories":[],"categories_nodes":[],"categories_segments":[],"categories_sizes":[],"default_left":[0,0,0,0,0,0,0,0,0,0,0,0,0,0,0,0,0,0,0,0,0,0,0,0,0,0,0,0,0,0,0,0,0,0,0,0,0,0,0,0,0,0,0,0,0,0,0,0,0,0,0,0,0,0,0,0,0,0,0,0,0,0,0,0,0,0,0,0,0,0,0,0,0,0,0,0,0,0,0,0,0,0,0,0,0,0,0,0,0,0,0,0,0,0,0,0,0,0,0,0,0,0,0,0,0,0,0],"id":9,"left_children":[1,3,5,7,9,11,13,15,17,19,21,23,25,27,29,31,33,-1,35,37,-1,39,41,43,45,47,49,51,53,55,57,59,61,63,65,-1,-1,67,69,71,73,75,77,79,81,83,85,87,89,-1,91,93,95,97,99,-1,101,103,105,-1,-1,-1,-1,-1,-1,-1,-1,-1,-1,-1,-1,-1,-1,-1,-1,-1,-1,-1,-1,-1,-1,-1,-1,-1,-1,-1,-1,-1,-1,-1,-1,-1,-1,-1,-1,-1,-1,-1,-1,-1,-1,-1,-1,-1,-1,-1,-1],"loss_changes":[4.8674345E0,4.816239E-1,1.7086055E0,2.694117E0,4.64252E-1,4.740286E-1,4.0964627E-1,7.2155637E-1,7.74204E-1,1.9858203E0,3.2276464E0,2.5693277E-1,2.2034061E-1,4.536513E-1,4.4962275E-1,2.7387955E0,5.432527E-1,0E0,3.1844157E-1,8.949739E-1,0E0,1.1608195E-1,1.1266533E0,9.542182E-1,1.0573078E0,4.0902293E-1,4.2256656E-1,6.493167E-1,2.657683E-1,9.479034E-1,1.7651245E-1,1.1268036E0,4.9285173E-2,6.789603E-1,5.4151905E-1,0E0,0E0,1.0680745E0,1.5344181E0,9.0025425E-2,1.3700296E-1,1.8058944E-1,8.240253E-1,6.264838E-1,4.034877E-3,1.342361E-1,4.397334E-1,2.4309671E-1,2.3514122E-2,0E0,2.6810783E-1,5.1171964E-1,9.787384E-2,1.4654827E-1,3.2229292E-1,0E0,2.268584E0,1.9914003E-1,3.488198E-2,0E0,0E0,0E0,0E0,0E0,0E0,0E0,0E0,0E0,0E0,0E0,0E0,0E0,0E0,0E0,0E0,0E0,0E0,0E0,0E0,0E0,0E0,0E0,0E0,0E0,0E0,0E0,0E0,0E0,0E0,0E0,0E0,0E0,0E0,0E0,0E0,0E0,0E0,0E0,0E0,0E0,0E0,0E0,0E0,0E0,0E0,0E0,0E0],"parents":[2147483647,0,0,1,1,2,2,3,3,4,4,5,5,6,6,7,7,8,8,9,9,10,10,11,11,12,12,13,13,14,14,15,15,16,16,18,18,19,19,21,21,22,22,23,23,24,24,25,25,26,26,27,27,28,28,29,29,30,30,31,31,32,32,33,33,34,34,37,37,38,38,39,39,40,40,41,41,42,42,43,43,44,44,45,45,46,46,47,47,48,48,50,50,51,51,52,52,53,53,54,54,56,56,57,57,58,58],"right_children":[2,4,6,8,10,12,14,16,18,20,22,24,26,28,30,32,34,-1,36,38,-1,40,42,44,46,48,50,52,54,56,58,60,62,64,66,-1,-1,68,70,72,74,76,78,80,82,84,86,88,90,-1,92,94,96,98,100,-1,102,104,106,-1,-1,-1,-1,-1,-1,-1,-1,-1,-1,-1,-1,-1,-1,-1,-1,-1,-1,-1,-1,-1,-1,-1,-1,-1,-1,-1,-1,-1,-1,-1,-1,-1,-1,-1,-1,-1,-1,-1,-1,-1,-1,-1,-1,-1,-1,-1,-1],"split_conditions":[3E0,1.34E2,1.5E1,1.3E2,2.06E2,7E0,2.2E1,1.18E2,1.31E2,2.03E2,2.14E2,1.96E2,1.57E2,1.7E1,2.6E1,1.14E2,1.22E2,2.131551E-1,1.32E2,1.95E2,-1.512238E-1,2.13E2,2.27E2,1.91E2,2.04E2,1.27E2,1.7E2,1.6E1,4.1E1,1.7E1,3.2E1,1.07E2,1.15E2,2E0,1.24E2,-1.8795062E-2,1.0529688E-1,1.79E2,1.98E2,2.1E2,2E0,2.17E2,2.33E2,1.83E2,1.94E2,5E0,2.39E2,9.3E1,1.28E2,1.3809937E-1,2.19E2,5E0,5E0,4E0,5E0,2.4386746E-1,2.1E1,1.6E1,2E1,-6.741885E-3,-7.391524E-2,5.918908E-2,1.19452655E-1,-1.8573126E-1,1.4410115E-2,4.3699488E-2,-5.409979E-2,-1.6040755E-2,-6.800799E-2,1.2401379E-1,-1.8081145E-2,5.7466615E-2,1.04555026E-1,-1.6581917E-3,9.410563E-2,-2.2862162E-2,-7.15191E-2,5.4848287E-2,-1.4510012E-2,7.1520563E-3,-5.2713983E-2,7.2188534E-2,1.5357327E-1,-1.1391139E-1,9.790421E-4,4.5522436E-2,-1.8724723E-2,1.671211E-2,7.353945E-2,-1.1707971E-1,-2.3689987E-2,-4.6015836E-2,6.403524E-2,6.913426E-2,-4.0927842E-2,-1.0771695E-1,-2.9829254E-2,2.3177883E-2,4.8153635E-2,5.2282486E-2,1.5733252E-1,-1.0660852E-1,2.8537375E-1,-8.9366846E-2,4.675069E-2,6.915967E-2,2.0894766E-2],"split_indices":[1,0,1,0,0,1,0,0,0,0,0,0,0,1,0,0,0,0,0,0,0,0,0,0,0,0,0,1,1,1,0,0,0,1,0,0,0,0,0,0,1,0,0,0,0,1,0,0,0,0,0,0,0,0,0,0,1,1,1,0,0,0,0,0,0,0,0,0,0,0,0,0,0,0,0,0,0,0,0,0,0,0,0,0,0,0,0,0,0,0,0,0,0,0,0,0,0,0,0,0,0,0,0,0,0,0,0],"split_type":[0,0,0,0,0,0,0,0,0,0,0,0,0,0,0,0,0,0,0,0,0,0,0,0,0,0,0,0,0,0,0,0,0,0,0,0,0,0,0,0,0,0,0,0,0,0,0,0,0,0,0,0,0,0,0,0,0,0,0,0,0,0,0,0,0,0,0,0,0,0,0,0,0,0,0,0,0,0,0,0,0,0,0,0,0,0,0,0,0,0,0,0,0,0,0,0,0,0,0,0,0,0,0,0,0,0,0],"sum_hessian":[3.471E3,1.88E3,1.591E3,1.095E3,7.85E2,1.441E3,1.5E2,1.084E3,1.1E1,2.47E2,5.38E2,1.047E3,3.94E2,1.31E2,1.9E1,1.053E3,3.1E1,5E0,6E0,2.37E2,1E1,3.2E1,5.06E2,1E3,4.7E1,3.85E2,9E0,2.2E1,1.09E2,7E0,1.2E1,1.035E3,1.8E1,6E0,2.5E1,3E0,3E0,2.07E2,3E1,2.7E1,5E0,4.5E1,4.61E2,9.94E2,6E0,9E0,3.8E1,3.83E2,2E0,3E0,6E0,1.5E1,7E0,9.2E1,1.7E1,3E0,4E0,2E0,1E1,1.013E3,2.2E1,5E0,1.3E1,4E0,2E0,6E0,1.9E1,1.62E2,4.5E1,9E0,2.1E1,1.1E1,1.6E1,4E0,1E0,1E1,3.5E1,1.5E1,4.46E2,9.79E2,1.5E1,4E0,2E0,8E0,1E0,1.5E1,2.3E1,3.77E2,6E0,1E0,1E0,3E0,3E0,1E1,5E0,3E0,4E0,4.2E1,5E1,1.4E1,3E0,3E0,1E0,1E0,1E0,7E0,3E0],"tree_param":{"num_deleted":"0","num_feature":"2","num_nodes":"107","size_leaf_vector":"1"}},{"base_weights":[9.923829E-4,-1.8079963E-2,3.800578E-2,-3.205442E-2,-2.6131796E-3,3.026887E-2,1.271521E-1,-8.17546E-2,-2.7429331E-2,-1.542468E-3,-2.3443499E-1,3.6943734E-2,-4.2946595E-3,1.1267807E-1,2.6866317E-1,-5.788833E-3,-1.7052755E-1,8.660893E-2,-3.1690706E-2,-3.2893808E-3,9.394767E-2,-3.3484414E-2,-1.0885742E-1,3.2416616E-2,2.3723237E-1,-3.1167415E-1,1.7951416E-2,1.2793589E-1,-1.6313724E-1,6.241935E-1,4.6120804E-2,-9.016506E-2,4.8980486E-2,-4.9201116E-1,-6.877074E-2,6.6537033E-3,8.1785E-2,-1.7021346E-1,-2.6534371E-2,2.5490086E-4,-1.4697891E-1,3.4191214E-2,-1.9708109E-1,2.4448211E-1,1.4923097E-2,-2.4097824E-2,-4.524501E-1,1.4774778E-1,-2.9046105E-3,1.06095284E-1,1.17162324E-1,-3.5554433E-1,9.097367E-2,2.2528769E-1,5.5599406E-2,2.1180744E-1,-1.1734686E-1,4.3669753E-3,-7.052013E-2,3.7457885E-3,-2.8628072E-2,2.366338E-2,-1.980423E-2,-3.081489E-2,-8.763434E-2,9.153972E-2,-8.634689E-3,-1.4157111E-3,2.7763309E-2,-1.1785654E-1,-1.0714908E-2,8.063902E-3,2.6342552E-2,-7.8346826E-2,2.8105332E-2,5.6568444E-2,1.0026498E-1,-5.6934897E-2,9.579642E-2,-1.5766317E-1,8.880973E-3,8.720056E-2,-4.6968646E-2,-1.7931098E-2,7.064155E-3,5.6204427E-2,2.3026122E-2,-6.6684727E-3,-1.377721E-1,1.0356453E-1,-4.827347E-2],"categories":[],"categories_nodes":[],"categories_segments":[],"categories_sizes":[],"default_left":[0,0,0,0,0,0,0,0,0,0,0,0,0,0,0,0,0,0,0,0,0,0,0,0,0,0,0,0,0,0,0,0,0,0,0,0,0,0,0,0,0,0,0,0,0,0,0,0,0,0,0,0,0,0,0,0,0,0,0,0,0,0,0,0,0,0,0,0,0,0,0,0,0,0,0,0,0,0,0,0,0,0,0,0,0,0,0,0,0,0,0],"id":10,"left_children":[1,3,5,7,9,11,13,15,17,19,21,23,25,27,29,31,33,35,37,39,-1,-1,-1,41,43,45,47,49,51,53,55,57,-1,-1,59,61,-1,63,65,67,69,71,73,75,-1,77,79,81,83,85,-1,87,-1,-1,-1,89,-1,-1,-1,-1,-1,-1,-1,-1,-1,-1,-1,-1,-1,-1,-1,-1,-1,-1,-1,-1,-1,-1,-1,-1,-1,-1,-1,-1,-1,-1,-1,-1,-1,-1,-1],"loss_changes":[2.4516842E0,4.9530894E-1,8.1070733E-1,2.7451837E-1,2.699438E-1,2.511676E-1,1.622616E-1,6.8687075E-1,5.387582E-1,5.975152E-1,3.83645E-2,8.1924796E-1,1.2159189E0,3.8699663E-1,6.041763E-1,8.135276E-1,6.915247E0,5.930777E-1,7.5546646E-1,5.5005574E-1,0E0,0E0,0E0,3.7042683E-1,1.502347E-2,4.74903E-1,4.4979724E-1,4.3460822E-1,5.56494E-1,2.7721286E-2,5.1755553E-1,5.800482E-1,0E0,0E0,9.8661125E-2,1.5740994E-1,0E0,2.8265786E-1,7.744751E-1,4.8472607E-1,6.9724584E-1,3.4536588E-1,1.5488186E-1,3.232181E-2,0E0,3.450991E-1,2.9743862E-1,1.0458282E0,2.1801224E-1,1.7157888E-1,0E0,1.2804604E-1,0E0,0E0,0E0,3.0416688E-1,0E0,0E0,0E0,0E0,0E0,0E0,0E0,0E0,0E0,0E0,0E0,0E0,0E0,0E0,0E0,0E0,0E0,0E0,0E0,0E0,0E0,0E0,0E0,0E0,0E0,0E0,0E0,0E0,0E0,0E0,0E0,0E0,0E0,0E0,0E0],"parents":[2147483647,0,0,1,1,2,2,3,3,4,4,5,5,6,6,7,7,8,8,9,9,10,10,11,11,12,12,13,13,14,14,15,15,16,16,17,17,18,18,19,19,23,23,24,24,25,25,26,26,27,27,28,28,29,29,30,30,31,31,34,34,35,35,37,37,38,38,39,39,40,40,41,41,42,42,43,43,45,45,46,46,47,47,48,48,49,49,51,51,55,55],"right_children":[2,4,6,8,10,12,14,16,18,20,22,24,26,28,30,32,34,36,38,40,-1,-1,-1,42,44,46,48,50,52,54,56,58,-1,-1,60,62,-1,64,66,68,70,72,74,76,-1,78,80,82,84,86,-1,88,-1,-1,-1,90,-1,-1,-1,-1,-1,-1,-1,-1,-1,-1,-1,-1,-1,-1,-1,-1,-1,-1,-1,-1,-1,-1,-1,-1,-1,-1,-1,-1,-1,-1,-1,-1,-1,-1,-1],"split_conditions":[4E0,2E0,1.9E1,2.1E1,3.37E2,6.8E1,6.3E1,1.3E1,2.6E1,3.26E2,3.61E2,6.2E1,7.2E1,5.5E1,8.6E1,1.1E1,1.5E1,2.5E1,3.1E1,2.76E2,9.394767E-2,-3.3484414E-2,-1.0885742E-1,6.1E1,9E0,7.1E1,7.5E1,4.5E1,4E0,3E0,4E0,7E0,4.8980486E-2,-4.9201116E-1,1.7E1,2.3E1,8.1785E-2,3E1,3.2E1,2.26E2,2.84E2,4.2E1,9E0,8E0,1.4923097E-2,6.9E1,6E0,7E0,9.6E1,2.1E1,1.17162324E-1,2E0,9.097367E-2,2.2528769E-1,5.5599406E-2,2.1E2,-1.1734686E-1,4.3669753E-3,-7.052013E-2,3.7457885E-3,-2.8628072E-2,2.366338E-2,-1.980423E-2,-3.081489E-2,-8.763434E-2,9.153972E-2,-8.634689E-3,-1.4157111E-3,2.7763309E-2,-1.1785654E-1,-1.0714908E-2,8.063902E-3,2.6342552E-2,-7.8346826E-2,2.8105332E-2,5.6568444E-2,1.0026498E-1,-5.6934897E-2,9.579642E-2,-1.5766317E-1,8.880973E-3,8.720056E-2,-4.6968646E-2,-1.7931098E-2,7.064155E-3,5.6204427E-2,2.3026122E-2,-6.6684727E-3,-1.377721E-1,1.0356453E-1,-4.827347E-2],"split_indices":[1,1,1,0,0,0,1,0,0,0,0,0,0,1,1,0,0,0,0,0,0,0,0,0,1,0,0,1,0,0,0,0,0,0,0,0,0,0,0,0,0,0,1,1,0,0,1,1,0,1,0,0,0,0,0,1,0,0,0,0,0,0,0,0,0,0,0,0,0,0,0,0,0,0,0,0,0,0,0,0,0,0,0,0,0,0,0,0,0,0,0],"split_type":[0,0,0,0,0,0,0,0,0,0,0,0,0,0,0,0,0,0,0,0,0,0,0,0,0,0,0,0,0,0,0,0,0,0,0,0,0,0,0,0,0,0,0,0,0,0,0,0,0,0,0,0,0,0,0,0,0,0,0,0,0,0,0,0,0,0,0,0,0,0,0,0,0,0,0,0,0,0,0,0,0,0,0,0,0,0,0,0,0,0,0],"sum_hessian":[3.471E3,2.291E3,1.18E3,1.203E3,1.088E3,1.087E3,9.3E1,1.01E2,1.102E3,1.084E3,4E0,9.11E2,1.76E2,8.6E1,7E0,5.5E1,4.6E1,3.9E1,1.063E3,1.079E3,5E0,3E0,1E0,8.92E2,1.9E1,1.1E1,1.65E2,8.2E1,4E0,2E0,5E0,3.7E1,1.8E1,2E0,4.4E1,2.8E1,1.1E1,3.7E1,1.026E3,1.054E3,2.5E1,8.86E2,6E0,1.8E1,1E0,4E0,7E0,2.2E1,1.43E2,7.7E1,5E0,3E0,1E0,1E0,1E0,4E0,1E0,2.2E1,1.5E1,1.1E1,3.3E1,1.4E1,1.4E1,2.5E1,1.2E1,6E0,1.02E3,1.001E3,5.3E1,7E0,1.8E1,7.81E2,1.05E2,5E0,1E0,1.3E1,5E0,3E0,1E0,6E0,1E0,1.5E1,7E0,4.5E1,9.8E1,1.9E1,5.8E1,1E0,2E0,3E0,1E0],"tree_param":{"num_deleted":"0","num_feature":"2","num_nodes":"91","size_leaf_vector":"1"}},{"base_weights":[6.37754E-4,-5.970213E-3,5.9040643E-2,-1.7188089E-2,1.1051394E-2,4.928191E-2,1.2152768E-1,-7.660914E-3,-3.0450933E-2,1.0349837E-2,6.75735E-2,5.3767633E-2,-7.631276E-2,8.134391E-2,2.4564332E-1,-1.1583485E-2,3.476433E-1,-6.303636E-2,-1.9957196E-2,1.1809884E-2,-1.3968074E-1,4.983742E-2,1.8951672E-1,7.3931694E-2,-1.727284E-1,-1.9342971E-1,1.1127775E-1,1.9022813E-1,1.433889E-1,-8.245266E-3,-1.2117408E-1,1.6202495E-1,1.3303158E-1,-3.1735297E-2,-2.3679623E-1,5.179616E-2,-3.2655112E-2,9.6682925E-3,1.4046445E-1,-8.831278E-2,-2.2033846E-1,5.2089E-2,-1.2417257E-1,-1.305646E-1,5.422392E-1,-4.532719E-3,6.451421E-2,-7.11947E-2,-6.495905E-2,-8.041892E-2,-2.375927E-2,4.6758175E-1,6.1713435E-2,-3.6101136E-2,1.2649477E-1,-3.966485E-3,7.905922E-2,-5.204075E-2,2.7112609E-2,-1.2623406E-2,8.2464986E-2,-1.9312413E-2,1.2995177E-2,-1.9774753E-1,-5.4329064E-2,-1.013132E-2,6.0185242E-2,-5.3625822E-2,-6.9275526E-3,3.835805E-3,-5.9095494E-2,1.004002E-1,3.045009E-3,-6.1443437E-2,1.2215377E-3,-8.397384E-2,-6.242323E-3,1.4545679E-2,1.1311484E-1,-6.8376735E-2,-4.0845396E-3,3.4000684E-2,-1.6592482E-1,1.8720208E-1,4.4540405E-2,7.2332383E-3,-3.080578E-2,5.3436473E-2,2.0039435E-1,4.1148223E-2,-3.313259E-2,-1.9741321E-2,2.1317769E-2],"categories":[],"categories_nodes":[],"categories_segments":[],"categories_sizes":[],"default_left":[0,0,0,0,0,0,0,0,0,0,0,0,0,0,0,0,0,0,0,0,0,0,0,0,0,0,0,0,0,0,0,0,0,0,0,0,0,0,0,0,0,0,0,0,0,0,0,0,0,0,0,0,0,0,0,0,0,0,0,0,0,0,0,0,0,0,0,0,0,0,0,0,0,0,0,0,0,0,0,0,0,0,0,0,0,0,0,0,0,0,0,0,0],"id":11,"left_children":[1,3,5,7,9,11,13,15,17,19,-1,21,23,25,27,29,31,33,35,37,39,41,43,45,47,49,51,-1,53,55,57,-1,59,61,63,65,67,69,71,73,75,77,79,81,83,-1,-1,-1,85,-1,-1,87,89,91,-1,-1,-1,-1,-1,-1,-1,-1,-1,-1,-1,-1,-1,-1,-1,-1,-1,-1,-1,-1,-1,-1,-1,-1,-1,-1,-1,-1,-1,-1,-1,-1,-1,-1,-1,-1,-1,-1,-1],"loss_changes":[1.340282E0,5.959423E-1,2.0926845E-1,2.37445E-1,1.840023E-1,1.7706168E-1,2.1442777E-1,1.5315287E0,2.6750904E-1,2.726165E-1,0E0,1.4901102E-1,1.7211518E-1,3.2585055E-1,3.4600657E-1,3.9593446E-1,4.2374992E-1,1.031309E0,5.447179E-1,3.3643627E-1,3.0259952E-2,1.2008911E-1,9.739962E-1,6.6074386E-2,3.330788E-2,1.2872174E-2,5.715827E-1,0E0,5.1467156E-1,1.4289691E0,3.6969307E-1,0E0,1.854437E-1,4.020849E-1,5.628623E-1,1.1528554E0,7.042382E-1,7.801739E-1,5.027518E-1,9.769807E-2,4.1723266E-2,3.177852E-1,4.2778086E-2,5.7794523E-1,3.6146045E-2,0E0,0E0,0E0,1.5917148E-2,0E0,0E0,1.1304873E-1,4.1779673E-1,2.69571E-2,0E0,0E0,0E0,0E0,0E0,0E0,0E0,0E0,0E0,0E0,0E0,0E0,0E0,0E0,0E0,0E0,0E0,0E0,0E0,0E0,0E0,0E0,0E0,0E0,0E0,0E0,0E0,0E0,0E0,0E0,0E0,0E0,0E0,0E0,0E0,0E0,0E0,0E0,0E0],"parents":[2147483647,0,0,1,1,2,2,3,3,4,4,5,5,6,6,7,7,8,8,9,9,11,11,12,12,13,13,14,14,15,15,16,16,17,17,18,18,19,19,20,20,21,21,22,22,23,23,24,24,25,25,26,26,28,28,29,29,30,30,32,32,33,33,34,34,35,35,36,36,37,37,38,38,39,39,40,40,41,41,42,42,43,43,44,44,48,48,51,51,52,52,53,53],"right_children":[2,4,6,8,10,12,14,16,18,20,-1,22,24,26,28,30,32,34,36,38,40,42,44,46,48,50,52,-1,54,56,58,-1,60,62,64,66,68,70,72,74,76,78,80,82,84,-1,-1,-1,86,-1,-1,88,90,92,-1,-1,-1,-1,-1,-1,-1,-1,-1,-1,-1,-1,-1,-1,-1,-1,-1,-1,-1,-1,-1,-1,-1,-1,-1,-1,-1,-1,-1,-1,-1,-1,-1,-1,-1,-1,-1,-1,-1],"split_conditions":[9E0,3E0,2.6E1,1.34E2,3.18E2,2.4E1,5E0,1.3E2,1.89E2,2.78E2,6.75735E-2,2.2E1,2E0,2.8E1,2.7E1,1.18E2,1.31E2,1.79E2,2.14E2,2.19E2,3.09E2,1.64E2,8E0,2.5E1,6E0,2E0,3E1,1.9022813E-1,4.5E1,1.14E2,1.29E2,1.6202495E-1,1.32E2,1.68E2,1.8E2,2.06E2,2.2E2,1.96E2,2.39E2,2.84E2,3.12E2,1.57E2,1.81E2,6E0,2.3E1,-4.532719E-3,6.451421E-2,-7.11947E-2,1E1,-8.041892E-2,-2.375927E-2,2E0,4E0,2.2E1,1.2649477E-1,-3.966485E-3,7.905922E-2,-5.204075E-2,2.7112609E-2,-1.2623406E-2,8.2464986E-2,-1.9312413E-2,1.2995177E-2,-1.9774753E-1,-5.4329064E-2,-1.013132E-2,6.0185242E-2,-5.3625822E-2,-6.9275526E-3,3.835805E-3,-5.9095494E-2,1.004002E-1,3.045009E-3,-6.1443437E-2,1.2215377E-3,-8.397384E-2,-6.242323E-3,1.4545679E-2,1.1311484E-1,-6.8376735E-2,-4.0845396E-3,3.4000684E-2,-1.6592482E-1,1.8720208E-1,4.4540405E-2,7.2332383E-3,-3.080578E-2,5.3436473E-2,2.0039435E-1,4.1148223E-2,-3.313259E-2,-1.9741321E-2,2.1317769E-2],"split_indices":[1,1,1,0,0,1,0,0,0,0,0,1,0,1,1,0,0,0,0,0,0,0,0,1,0,0,1,0,1,0,0,0,0,0,0,0,0,0,0,0,0,0,0,0,1,0,0,0,0,0,0,0,0,0,0,0,0,0,0,0,0,0,0,0,0,0,0,0,0,0,0,0,0,0,0,0,0,0,0,0,0,0,0,0,0,0,0,0,0,0,0,0,0],"split_type":[0,0,0,0,0,0,0,0,0,0,0,0,0,0,0,0,0,0,0,0,0,0,0,0,0,0,0,0,0,0,0,0,0,0,0,0,0,0,0,0,0,0,0,0,0,0,0,0,0,0,0,0,0,0,0,0,0,0,0,0,0,0,0,0,0,0,0,0,0,0,0,0,0,0,0,0,0,0,0,0,0,0,0,0,0,0,0,0,0,0,0,0,0],"sum_hessian":[3.471E3,3.119E3,3.52E2,1.88E3,1.239E3,3.06E2,4.6E1,1.095E3,7.85E2,1.236E3,3E0,2.96E2,1E1,3.6E1,1E1,1.084E3,1.1E1,1.9E2,5.95E2,1.225E3,1.1E1,2.89E2,7E0,4E0,6E0,3E0,3.3E1,1E0,9E0,1.053E3,3.1E1,5E0,6E0,1.62E2,2.8E1,8.9E1,5.06E2,1.206E3,1.9E1,8E0,3E0,2.86E2,3E0,4E0,3E0,3E0,1E0,3E0,3E0,1E0,2E0,3E0,3E1,6E0,3E0,1.035E3,1.8E1,2.5E1,6E0,3E0,3E0,1.13E2,4.9E1,2E0,2.6E1,5.7E1,3.2E1,3E1,4.76E2,1.189E3,1.7E1,7E0,1.2E1,3E0,5E0,2E0,1E0,2.84E2,2E0,1E0,2E0,3E0,1E0,2E0,1E0,1E0,2E0,2E0,1E0,2.1E1,9E0,5E0,1E0],"tree_param":{"num_deleted":"0","num_feature":"2","num_nodes":"93","size_leaf_vector":"1"}},{"base_weights":[6.1193266E-4,-7.981945E-3,2.5742264E-2,-1.8874285E-3,-2.1875668E-2,1.8099332E-2,6.277414E-2,-4.0528295E-3,1.1787763E-1,-1.2288989E-1,-1.4728493E-2,1.9494535E-2,-1.894991E-1,4.2977672E-2,1.7107715E-1,-3.0101638E-3,-4.6337652E-1,3.6235046E-1,7.0011854E-2,-7.113482E-2,-7.748606E-2,1.8871416E-1,-1.6455526E-2,1.6239038E-2,1.3441548E-1,-6.8409175E-2,-5.3059817E-3,6.0456235E-2,-8.424318E-2,3.0719772E-1,7.799966E-2,-1.0653566E-2,1.5526474E-2,-1.691876E-1,-2.4244525E-2,5.4122403E-2,1.6351806E-1,-1.0598487E-1,1.3372433E-1,-1.5500629E-1,1.5644766E-1,-1.2711413E-2,-7.513639E-2,1.847009E-2,-5.171893E-1,3.1144658E-1,7.06923E-2,-2.0116994E-2,8.569295E-2,-2.2753644E-1,5.2488964E-2,1.8391E-1,5.2107733E-2,-1.77279E-2,2.2454564E-1,-1.3168241E-3,-1.9673226E-2,1.07047446E-1,5.2826817E-4,4.1049864E-2,-1.6688763E-1,4.960461E-2,-1.6302109E-4,3.2414165E-3,-8.712091E-2,-5.4322205E-2,1.7930655E-1,-5.995742E-3,1.2547238E-2,-4.0220033E-2,6.8502186E-4,7.005124E-3,-1.7911874E-2,-2.0935737E-1,-2.3377849E-2,1.0455058E-1,2.4483778E-2,4.1387663E-3,9.3793444E-2,6.4494507E-3,-1.7155896E-1,1.4078746E-2,6.3961565E-2,-3.784149E-2,-8.922E-2,-1.235199E-3,3.728285E-2,-7.9353265E-2,5.0500087E-2,-3.7161067E-2,3.395654E-2,1.3953714E-1,-3.6073208E-3],"categories":[],"categories_nodes":[],"categories_segments":[],"categories_sizes":[],"default_left":[0,0,0,0,0,0,0,0,0,0,0,0,0,0,0,0,0,0,0,0,0,0,0,0,0,0,0,0,0,0,0,0,0,0,0,0,0,0,0,0,0,0,0,0,0,0,0,0,0,0,0,0,0,0,0,0,0,0,0,0,0,0,0,0,0,0,0,0,0,0,0,0,0,0,0,0,0,0,0,0,0,0,0,0,0,0,0,0,0,0,0,0,0],"id":12,"left_children":[1,3,5,7,9,11,13,15,17,19,21,23,25,27,29,31,33,35,37,39,-1,-1,41,43,45,-1,-1,47,49,51,53,55,57,-1,-1,-1,-1,59,61,63,65,67,69,71,73,75,77,79,81,83,85,-1,87,89,91,-1,-1,-1,-1,-1,-1,-1,-1,-1,-1,-1,-1,-1,-1,-1,-1,-1,-1,-1,-1,-1,-1,-1,-1,-1,-1,-1,-1,-1,-1,-1,-1,-1,-1,-1,-1,-1,-1],"loss_changes":[7.5004286E-1,2.1909899E-1,2.4934715E-1,4.6728864E-1,5.678215E-1,2.1658091E-1,3.1639403E-1,8.458165E-1,3.4909138E-1,3.460157E-1,8.3087546E-1,2.7130237E-1,2.9067844E-2,2.9194224E-1,2.6744318E-1,2.5037754E-1,1.0833901E-1,6.7880094E-2,3.28142E-1,7.686698E-1,0E0,0E0,1.6096954E-1,8.5690796E-1,2.0360282E-1,0E0,0E0,2.3353189E-1,3.254279E-1,6.7019653E-1,2.1440805E-1,4.301204E-1,2.4236276E0,0E0,0E0,0E0,0E0,9.5085967E-1,8.925867E-2,6.541956E-1,1.7464375E0,2.7615464E-1,2.0105077E-1,2.7227744E-1,1.837017E-1,1.4140755E-2,2.1594645E-1,6.552022E-1,4.2002332E-1,1.9158721E-2,3.7084155E-2,0E0,2.6532176E-1,1.5297833E-1,3.4707436E-1,0E0,0E0,0E0,0E0,0E0,0E0,0E0,0E0,0E0,0E0,0E0,0E0,0E0,0E0,0E0,0E0,0E0,0E0,0E0,0E0,0E0,0E0,0E0,0E0,0E0,0E0,0E0,0E0,0E0,0E0,0E0,0E0,0E0,0E0,0E0,0E0,0E0,0E0],"parents":[2147483647,0,0,1,1,2,2,3,3,4,4,5,5,6,6,7,7,8,8,9,9,10,10,11,11,12,12,13,13,14,14,15,15,16,16,17,17,18,18,19,19,22,22,23,23,24,24,27,27,28,28,29,29,30,30,31,31,32,32,37,37,38,38,39,39,40,40,41,41,42,42,43,43,44,44,45,45,46,46,47,47,48,48,49,49,50,50,52,52,53,53,54,54],"right_children":[2,4,6,8,10,12,14,16,18,20,22,24,26,28,30,32,34,36,38,40,-1,-1,42,44,46,-1,-1,48,50,52,54,56,58,-1,-1,-1,-1,60,62,64,66,68,70,72,74,76,78,80,82,84,86,-1,88,90,92,-1,-1,-1,-1,-1,-1,-1,-1,-1,-1,-1,-1,-1,-1,-1,-1,-1,-1,-1,-1,-1,-1,-1,-1,-1,-1,-1,-1,-1,-1,-1,-1,-1,-1,-1,-1,-1,-1],"split_conditions":[5E0,1.56E2,1.5E1,1.48E2,1.68E2,2.82E2,2E1,1.46E2,1.49E2,1.65E2,1.69E2,1.57E2,3.12E2,1.2E1,1.7E1,6.7E1,4E0,3E0,1.51E2,1.62E2,-7.748606E-2,1.8871416E-1,3.67E2,1.53E2,1.77E2,-6.8409175E-2,-5.3059817E-3,1.8E1,1.5E1,2.6E1,2.1E1,5.9E1,6.9E1,-1.691876E-1,-2.4244525E-2,5.4122403E-2,1.6351806E-1,2E0,3E0,2E0,2E0,3.26E2,3.73E2,8.6E1,1.55E2,1E1,2.66E2,1E1,6E0,2.1E1,1.8E1,1.8391E-1,3.2E1,2.5E1,2.5E1,-1.3168241E-3,-1.9673226E-2,1.07047446E-1,5.2826817E-4,4.1049864E-2,-1.6688763E-1,4.960461E-2,-1.6302109E-4,3.2414165E-3,-8.712091E-2,-5.4322205E-2,1.7930655E-1,-5.995742E-3,1.2547238E-2,-4.0220033E-2,6.8502186E-4,7.005124E-3,-1.7911874E-2,-2.0935737E-1,-2.3377849E-2,1.0455058E-1,2.4483778E-2,4.1387663E-3,9.3793444E-2,6.4494507E-3,-1.7155896E-1,1.4078746E-2,6.3961565E-2,-3.784149E-2,-8.922E-2,-1.235199E-3,3.728285E-2,-7.9353265E-2,5.0500087E-2,-3.7161067E-2,3.395654E-2,1.3953714E-1,-3.6073208E-3],"split_indices":[1,0,1,0,0,0,0,0,0,0,0,0,0,0,1,0,1,1,0,0,0,0,0,0,0,0,0,1,0,0,1,0,0,0,0,0,0,1,1,1,1,0,0,0,0,1,0,0,0,1,1,0,0,0,0,0,0,0,0,0,0,0,0,0,0,0,0,0,0,0,0,0,0,0,0,0,0,0,0,0,0,0,0,0,0,0,0,0,0,0,0,0,0],"split_type":[0,0,0,0,0,0,0,0,0,0,0,0,0,0,0,0,0,0,0,0,0,0,0,0,0,0,0,0,0,0,0,0,0,0,0,0,0,0,0,0,0,0,0,0,0,0,0,0,0,0,0,0,0,0,0,0,0,0,0,0,0,0,0,0,0,0,0,0,0,0,0,0,0,0,0,0,0,0,0,0,0,0,0,0,0,0,0,0,0,0,0,0,0],"sum_hessian":[3.471E3,2.587E3,8.84E2,1.799E3,7.88E2,7.34E2,1.5E2,1.768E3,3.1E1,5.1E1,7.37E2,7.3E2,4E0,1.28E2,2.2E1,1.765E3,3E0,4E0,2.7E1,3.8E1,1.3E1,1E0,7.36E2,7.11E2,1.9E1,3E0,1E0,1.13E2,1.5E1,8E0,1.4E1,1.25E3,5.15E2,2E0,1E0,3E0,1E0,7E0,2E1,2.8E1,1E1,6.93E2,4.3E1,7.09E2,2E0,4E0,1.5E1,2.7E1,8.6E1,7E0,8E0,3E0,5E0,9E0,5E0,1.123E3,1.27E2,1.9E1,4.96E2,5E0,2E0,1.6E1,4E0,1.3E1,1.5E1,6E0,4E0,6.12E2,8.1E1,2.4E1,1.9E1,6.68E2,4.1E1,1E0,1E0,3E0,1E0,1.3E1,2E0,2.6E1,1E0,6.7E1,1.9E1,4E0,3E0,5E0,3E0,1E0,4E0,5E0,4E0,2E0,3E0],"tree_param":{"num_deleted":"0","num_feature":"2","num_nodes":"93","size_leaf_vector":"1"}},{"base_weights":[4.7825126E-4,-1.4329853E-2,8.335669E-3,-6.904966E-2,-1.073693E-2,4.1997763E-3,3.567675E-2,8.300841E-4,-2.713768E-1,-7.304944E-3,-4.604766E-2,2.6839059E-2,-1.0283798E-3,3.1918544E-2,1.6792202E-1,-7.768308E-2,1.01293735E-1,-3.925523E-1,-7.239038E-2,-1.1523624E-2,7.8390434E-2,-1.0149546E-1,-1.7222693E-2,-8.778051E-3,9.3447596E-2,-1.3536724E-1,5.377738E-3,3.5780076E-2,-1.9611701E-1,4.711933E-1,-1.170063E-2,4.8519154E-3,-1.3084303E-1,9.46848E-2,6.893458E-2,1.3895611E-2,-6.986919E-2,-7.091913E-3,-1.9459015E-1,-4.581074E-2,-2.2138983E-2,2.5204124E-2,-4.148892E-2,1.4626376E-2,-1.3097613E-1,-1.2982756E-2,1.5460868E-1,-5.5221025E-2,-3.0719727E-1,2.3469761E-2,-4.0872544E-3,3.1090688E-2,8.821301E-2,-3.264115E-1,4.875913E-2,1.8321048E-1,2.8826524E-2,-8.312369E-2,1.9025826E-1,-4.694526E-3,2.3763347E-2,-4.3802977E-2,3.656124E-2,-7.3328097E-3,2.9004874E-2,-3.6425798E-3,1.12477295E-1,-3.7687525E-2,-8.357363E-2,-1.1056424E-3,1.3412868E-2,-2.2708407E-2,4.897356E-4,8.784628E-3,-2.4760349E-2,-8.3891384E-2,-7.923279E-3,-1.892897E-2,2.23011E-3,5.578879E-2,3.780845E-2,-2.6924914E-2,5.239134E-2,-2.3245025E-2,-1.3480078E-1,8.4173674E-4,3.188872E-2,-2.3589006E-2,2.6587744E-3,6.19898E-3,2.0152776E-2,-3.3361055E-2,-1.4580531E-1,1.0898104E-1,-4.93166E-2],"categories":[],"categories_nodes":[],"categories_segments":[],"categories_sizes":[],"default_left":[0,0,0,0,0,0,0,0,0,0,0,0,0,0,0,0,0,0,0,0,0,0,0,0,0,0,0,0,0,0,0,0,0,0,0,0,0,0,0,0,0,0,0,0,0,0,0,0,0,0,0,0,0,0,0,0,0,0,0,0,0,0,0,0,0,0,0,0,0,0,0,0,0,0,0,0,0,0,0,0,0,0,0,0,0,0,0,0,0,0,0,0,0,0,0],"id":13,"left_children":[1,3,5,7,9,11,13,15,17,19,21,23,25,27,29,31,33,-1,35,37,-1,39,41,43,45,47,49,51,53,55,57,59,-1,-1,61,63,-1,65,67,-1,-1,69,71,73,75,77,79,81,83,85,87,89,-1,91,-1,-1,-1,-1,93,-1,-1,-1,-1,-1,-1,-1,-1,-1,-1,-1,-1,-1,-1,-1,-1,-1,-1,-1,-1,-1,-1,-1,-1,-1,-1,-1,-1,-1,-1,-1,-1,-1,-1,-1,-1],"loss_changes":[4.040986E-1,2.3596986E-1,2.5642818E-1,1.0464793E0,1.3672493E-1,2.3343685E-1,1.4274779E-1,4.4958112E-1,3.8264003E0,1.1724366E0,1.5808012E-1,8.7860966E-1,1.3802546E0,2.6326188E-1,4.4130844E-1,9.488528E-1,1.5162525E-1,0E0,2.3867768E-1,8.2370996E-1,0E0,3.6955804E-2,7.002479E-2,6.940299E-1,8.417194E-1,9.8835766E-1,2.6226568E-1,3.3844268E-1,2.8670067E-1,9.830928E-2,3.742896E-1,4.239804E-2,0E0,0E0,2.794963E-1,4.045029E-2,0E0,1.9221663E0,1.0401827E-1,0E0,0E0,1.4252378E-2,6.354855E-2,2.92905E-1,5.988638E-1,4.958006E-2,5.0044537E-2,4.2044652E-1,7.1616197E-1,8.999578E-1,9.7180533E-1,1.0509801E-1,0E0,8.334723E-2,0E0,0E0,0E0,0E0,3.0515E-1,0E0,0E0,0E0,0E0,0E0,0E0,0E0,0E0,0E0,0E0,0E0,0E0,0E0,0E0,0E0,0E0,0E0,0E0,0E0,0E0,0E0,0E0,0E0,0E0,0E0,0E0,0E0,0E0,0E0,0E0,0E0,0E0,0E0,0E0,0E0,0E0],"parents":[2147483647,0,0,1,1,2,2,3,3,4,4,5,5,6,6,7,7,8,8,9,9,10,10,11,11,12,12,13,13,14,14,15,15,16,16,18,18,19,19,21,21,22,22,23,23,24,24,25,25,26,26,27,27,28,28,29,29,30,30,31,31,34,34,35,35,37,37,38,38,41,41,42,42,43,43,44,44,45,45,46,46,47,47,48,48,49,49,50,50,51,51,53,53,58,58],"right_children":[2,4,6,8,10,12,14,16,18,20,22,24,26,28,30,32,34,-1,36,38,-1,40,42,44,46,48,50,52,54,56,58,60,-1,-1,62,64,-1,66,68,-1,-1,70,72,74,76,78,80,82,84,86,88,90,-1,92,-1,-1,-1,-1,94,-1,-1,-1,-1,-1,-1,-1,-1,-1,-1,-1,-1,-1,-1,-1,-1,-1,-1,-1,-1,-1,-1,-1,-1,-1,-1,-1,-1,-1,-1,-1,-1,-1,-1,-1,-1],"split_conditions":[2E0,1.8E1,1E1,1.3E1,3.33E2,1.1E1,6.3E1,9E0,1.5E1,3.26E2,3.61E2,8E0,1.4E1,5.5E1,8.6E1,8E0,1E1,-3.925523E-1,1.7E1,3.18E2,7.8390434E-2,3.37E2,3.67E2,6E0,4E0,6E0,3.6E1,4.6E1,4E0,3E0,9.7E1,6E0,-1.3084303E-1,9.46848E-2,1.1E1,1.6E1,-6.986919E-2,3.12E2,3.21E2,-4.581074E-2,-2.2138983E-2,3.65E2,3.73E2,8E0,7E0,9E0,6E0,5E0,1.2E1,3E1,4.6E1,2.3E1,8.821301E-2,3E0,4.875913E-2,1.8321048E-1,2.8826524E-2,-8.312369E-2,2.1E2,-4.694526E-3,2.3763347E-2,-4.3802977E-2,3.656124E-2,-7.3328097E-3,2.9004874E-2,-3.6425798E-3,1.12477295E-1,-3.7687525E-2,-8.357363E-2,-1.1056424E-3,1.3412868E-2,-2.2708407E-2,4.897356E-4,8.784628E-3,-2.4760349E-2,-8.3891384E-2,-7.923279E-3,-1.892897E-2,2.23011E-3,5.578879E-2,3.780845E-2,-2.6924914E-2,5.239134E-2,-2.3245025E-2,-1.3480078E-1,8.4173674E-4,3.188872E-2,-2.3589006E-2,2.6587744E-3,6.19898E-3,2.0152776E-2,-3.3361055E-2,-1.4580531E-1,1.0898104E-1,-4.93166E-2],"split_indices":[1,0,1,0,0,0,1,0,0,0,0,0,0,1,1,0,0,0,0,0,0,0,0,0,1,1,0,1,0,0,1,0,0,0,0,0,0,0,0,0,0,0,0,1,0,0,1,1,0,0,0,0,0,0,0,0,0,0,1,0,0,0,0,0,0,0,0,0,0,0,0,0,0,0,0,0,0,0,0,0,0,0,0,0,0,0,0,0,0,0,0,0,0,0,0],"split_type":[0,0,0,0,0,0,0,0,0,0,0,0,0,0,0,0,0,0,0,0,0,0,0,0,0,0,0,0,0,0,0,0,0,0,0,0,0,0,0,0,0,0,0,0,0,0,0,0,0,0,0,0,0,0,0,0,0,0,0,0,0,0,0,0,0,0,0,0,0,0,0,0,0,0,0,0,0,0,0,0,0,0,0,0,0,0,0,0,0,0,0,0,0,0,0],"sum_hessian":[3.471E3,1.203E3,2.268E3,7.3E1,1.13E3,1.971E3,2.97E2,5.5E1,1.8E1,1.031E3,9.9E1,3.69E2,1.602E3,2.9E2,7E0,3.1E1,2.4E1,2E0,1.6E1,1.016E3,1.5E1,3.3E1,6.6E1,2.41E2,1.28E2,7.2E1,1.53E3,2.86E2,4E0,2E0,5E0,2.6E1,5E0,2E0,2.2E1,1.1E1,5E0,9.93E2,2.3E1,1E1,2.3E1,2.4E1,4.2E1,2.03E2,3.8E1,4.7E1,8.1E1,5E1,2.2E1,5.25E2,1.005E3,2.82E2,4E0,3E0,1E0,1E0,1E0,2E0,3E0,2.1E1,5E0,4E0,1.8E1,8E0,3E0,9.81E2,1.2E1,1.4E1,9E0,1E1,1.4E1,2.3E1,1.9E1,1.77E2,2.6E1,1.5E1,2.3E1,1.3E1,3.4E1,3.6E1,4.5E1,4.4E1,6E0,9E0,1.3E1,4.21E2,1.04E2,1.48E2,8.57E2,2.2E2,6.2E1,2E0,1E0,2E0,1E0],"tree_param":{"num_deleted":"0","num_feature":"2","num_nodes":"95","size_leaf_vector":"1"}},{"base_weights":[2.0346121E-4,7.1559297E-3,-1.3822461E-2,4.2629396E-3,1.809277E-1,-2.125425E-1,-8.132403E-3,1.6085862E-3,5.4335445E-2,8.255456E-2,2.7495584E-1,-1.4176813E-1,-1.6991115E-1,8.963735E-2,-1.2784856E-2,5.371024E-3,-7.247301E-2,6.838877E-2,-1.479355E-1,7.087784E-2,1.5568956E-2,4.14107E-1,1.0830913E-1,-1.7034292E-1,2.1679902E-2,3.140358E-2,2.7628013E-1,-1.5757534E-1,-3.1098095E-3,1.9072854E-3,2.1242611E-1,-1.5132965E-1,-4.593869E-2,4.597009E-2,9.670239E-2,-4.2806626E-3,4.3460667E-2,-9.502888E-4,5.933915E-1,-6.862481E-4,6.523253E-2,-6.700059E-2,-2.4675472E-1,1.0979039E-1,-1.852335E-1,3.1206673E-1,-1.7605878E-2,-1.0802498E-1,-3.2214826E-1,2.5713423E-1,-8.390795E-3,1.8186356E-3,-1.4983336E-2,8.350779E-2,2.9505914E-2,-1.8788768E-2,-1.0292309E-1,2.0818308E-2,-2.8981898E-2,6.721726E-2,6.1745537E-3,6.3649467E-3,1.8120218E-2,2.9999802E-1,1.0768769E-1,5.7957247E-2,-7.7688076E-2,-3.9404858E-2,5.0948814E-2,-3.245759E-2,-9.351381E-2,-4.289554E-2,5.3682595E-2,-8.407141E-2,4.8457384E-2,5.9685305E-2,2.1648361E-1,-4.6135716E-2,2.1177484E-1,-2.0497295E-1,-3.86184E-2,8.1351444E-2,-1.4360906E-3,1.0647791E-2,-3.567107E-3],"categories":[],"categories_nodes":[],"categories_segments":[],"categories_sizes":[],"default_left":[0,0,0,0,0,0,0,0,0,0,0,0,0,0,0,0,0,0,0,0,0,0,0,0,0,0,0,0,0,0,0,0,0,0,0,0,0,0,0,0,0,0,0,0,0,0,0,0,0,0,0,0,0,0,0,0,0,0,0,0,0,0,0,0,0,0,0,0,0,0,0,0,0,0,0,0,0,0,0,0,0,0,0,0,0],"id":14,"left_children":[1,3,5,7,9,11,13,15,17,19,21,23,-1,25,27,29,31,33,-1,-1,35,37,39,41,-1,43,45,47,49,51,53,55,57,59,-1,-1,61,-1,63,65,-1,67,69,71,73,75,-1,77,79,81,83,-1,-1,-1,-1,-1,-1,-1,-1,-1,-1,-1,-1,-1,-1,-1,-1,-1,-1,-1,-1,-1,-1,-1,-1,-1,-1,-1,-1,-1,-1,-1,-1,-1,-1],"loss_changes":[3.3867022E-1,1.1665447E0,1.29974E0,3.0361223E-1,3.287953E-1,7.210493E-1,5.105995E-1,6.055064E-1,9.1848147E-1,2.0224199E-1,3.9574087E-1,1.8355781E-1,0E0,5.456383E-1,1.4984244E0,1.4820157E0,2.1275085E-1,6.285226E-1,0E0,0E0,1.3103557E-2,7.499882E-1,1.1909874E-1,1.8088162E-1,0E0,6.9959646E-1,1.6216177E-1,5.115614E-1,1.382E0,4.3849817E-1,2.2834325E-1,4.2072314E-1,4.741961E-1,4.7012788E-1,0E0,0E0,1.7330507E-3,0E0,3.0828834E-1,3.5046914E-1,0E0,2.0518404E-1,9.228575E-2,5.49981E-1,4.0764487E-1,3.6602056E-1,0E0,2.0826273E0,9.5969355E-1,7.483125E-2,1.5169118E-1,0E0,0E0,0E0,0E0,0E0,0E0,0E0,0E0,0E0,0E0,0E0,0E0,0E0,0E0,0E0,0E0,0E0,0E0,0E0,0E0,0E0,0E0,0E0,0E0,0E0,0E0,0E0,0E0,0E0,0E0,0E0,0E0,0E0,0E0],"parents":[2147483647,0,0,1,1,2,2,3,3,4,4,5,5,6,6,7,7,8,8,9,9,10,10,11,11,13,13,14,14,15,15,16,16,17,17,20,20,21,21,22,22,23,23,25,25,26,26,27,27,28,28,29,29,30,30,31,31,32,32,33,33,36,36,38,38,39,39,41,41,42,42,43,43,44,44,45,45,47,47,48,48,49,49,50,50],"right_children":[2,4,6,8,10,12,14,16,18,20,22,24,-1,26,28,30,32,34,-1,-1,36,38,40,42,-1,44,46,48,50,52,54,56,58,60,-1,-1,62,-1,64,66,-1,68,70,72,74,76,-1,78,80,82,84,-1,-1,-1,-1,-1,-1,-1,-1,-1,-1,-1,-1,-1,-1,-1,-1,-1,-1,-1,-1,-1,-1,-1,-1,-1,-1,-1,-1,-1,-1,-1,-1,-1,-1],"split_conditions":[9.1E1,8.7E1,9.5E1,7.6E1,2E0,5E0,1.02E2,7.1E1,9E0,8.8E1,4E0,4E0,-1.6991115E-1,1E2,1.14E2,6.7E1,7.2E1,5E0,-1.479355E-1,7.087784E-2,8.9E1,8.8E1,8.9E1,9.3E1,2.1679902E-2,9.9E1,9E0,1.12E2,1.17E2,5.9E1,3E0,4E0,7.3E1,7.8E1,9.670239E-2,-4.2806626E-3,9E1,-9.502888E-4,8.9E1,8.8E1,6.523253E-2,3E0,2E0,2E0,3E0,8E0,-1.7605878E-2,1.11E2,1.13E2,7E0,1.34E2,1.8186356E-3,-1.4983336E-2,8.350779E-2,2.9505914E-2,-1.8788768E-2,-1.0292309E-1,2.0818308E-2,-2.8981898E-2,6.721726E-2,6.1745537E-3,6.3649467E-3,1.8120218E-2,2.9999802E-1,1.0768769E-1,5.7957247E-2,-7.7688076E-2,-3.9404858E-2,5.0948814E-2,-3.245759E-2,-9.351381E-2,-4.289554E-2,5.3682595E-2,-8.407141E-2,4.8457384E-2,5.9685305E-2,2.1648361E-1,-4.6135716E-2,2.1177484E-1,-2.0497295E-1,-3.86184E-2,8.1351444E-2,-1.4360906E-3,1.0647791E-2,-3.567107E-3],"split_indices":[0,0,0,0,1,1,0,0,1,0,1,1,0,0,0,0,0,1,0,0,0,0,0,0,0,0,1,0,0,0,1,1,0,0,0,0,0,0,0,0,0,1,1,1,1,1,0,0,0,1,0,0,0,0,0,0,0,0,0,0,0,0,0,0,0,0,0,0,0,0,0,0,0,0,0,0,0,0,0,0,0,0,0,0,0],"split_type":[0,0,0,0,0,0,0,0,0,0,0,0,0,0,0,0,0,0,0,0,0,0,0,0,0,0,0,0,0,0,0,0,0,0,0,0,0,0,0,0,0,0,0,0,0,0,0,0,0,0,0,0,0,0,0,0,0,0,0,0,0,0,0,0,0,0,0,0,0,0,0,0,0,0,0,0,0,0,0,0,0,0,0,0,0],"sum_hessian":[3.471E3,2.321E3,1.15E3,2.284E3,3.7E1,3.1E1,1.119E3,2.17E3,1.14E2,1.9E1,1.8E1,2.7E1,4E0,5E1,1.069E3,2.066E3,1.04E2,1.12E2,2E0,5E0,1.4E1,9E0,9E0,2.4E1,3E0,3.9E1,1.1E1,6.6E1,1.003E3,2.033E3,3.3E1,2.5E1,7.9E1,1.04E2,8E0,7E0,7E0,3E0,6E0,5E0,4E0,1.1E1,1.3E1,2.9E1,1E1,1E1,1E0,5.2E1,1.4E1,1.9E1,9.84E2,1.883E3,1.5E2,2E1,1.3E1,1.8E1,7E0,2.4E1,5.5E1,1.2E1,9.2E1,4E0,3E0,1E0,5E0,3E0,2E0,9E0,2E0,5E0,8E0,6E0,2.3E1,8E0,2E0,9E0,1E0,5E1,2E0,4E0,1E1,1.8E1,1E0,7.2E1,9.12E2],"tree_param":{"num_deleted":"0","num_feature":"2","num_nodes":"85","size_leaf_vector":"1"}},{"base_weights":[2.9092663E-4,-3.597663E-3,1.614617E-2,-1.0536142E-3,-2.393845E-2,7.4278046E-3,4.330692E-2,-2.7448111E-3,2.4413243E-1,-8.357236E-2,-2.480287E-3,1.6084094E-2,-1.05772614E-1,1.6803022E-1,6.2310123E-3,-1.1141186E-3,-9.908759E-2,8.758918E-2,-7.817574E-2,-5.9577722E-2,-9.4268315E-2,4.1856248E-2,-2.5659796E-2,7.6334034E-3,1.0948465E-1,-6.425648E-2,-2.9098988E-3,4.066112E-1,7.9966776E-2,-1.494842E-1,1.9155355E-2,-2.7609356E-3,3.0451947E-1,-1.4263879E-1,3.2655586E-2,-1.03480384E-1,6.311399E-2,-2.009849E-2,-2.1029887E-1,-8.014217E-3,2.2420819E-1,-1.6583793E-1,4.8239576E-3,2.0938732E-2,-1.5342905E-1,7.593201E-2,2.1270563E-1,-1.2999326E-1,7.5519085E-2,1.6585588E-2,4.8753202E-1,3.297321E-2,7.638398E-2,2.1479202E-2,-2.5446162E-1,1.6395862E-1,-6.3360455E-3,-4.0247344E-4,-1.8413782E-2,3.1341936E-2,1.3831893E-1,-2.885191E-2,-4.90159E-2,2.6926477E-2,-8.075066E-2,-3.871367E-2,-1.6516527E-2,7.478157E-2,-1.2145186E-2,-7.0932806E-2,3.749299E-3,1.7565696E-2,-1.7869672E-2,8.2317576E-2,1.4666663E-2,-2.8060252E-2,-7.4526936E-2,5.718547E-2,-7.2592166E-3,1.7314219E-3,3.698425E-2,-7.231525E-2,2.4290502E-2,3.1224549E-2,-8.8967904E-2,-1.4384423E-1,1.9924808E-2,9.059484E-2,-1.7605528E-2,2.3995706E-1,7.503429E-2,3.2600004E-2,-3.9599117E-2,6.7242626E-3,-1.1090844E-1,2.0994375E-2,1.8315554E-1,-5.7366062E-2,4.019966E-3],"categories":[],"categories_nodes":[],"categories_segments":[],"categories_sizes":[],"default_left":[0,0,0,0,0,0,0,0,0,0,0,0,0,0,0,0,0,0,0,0,0,0,0,0,0,0,0,0,0,0,0,0,0,0,0,0,0,0,0,0,0,0,0,0,0,0,0,0,0,0,0,0,0,0,0,0,0,0,0,0,0,0,0,0,0,0,0,0,0,0,0,0,0,0,0,0,0,0,0,0,0,0,0,0,0,0,0,0,0,0,0,0,0,0,0,0,0,0,0],"id":15,"left_children":[1,3,5,7,9,11,13,15,17,19,21,23,25,27,29,31,33,-1,-1,35,37,39,41,43,45,-1,47,49,51,53,55,57,59,61,63,65,67,-1,69,71,73,75,77,79,81,83,-1,85,87,-1,89,91,-1,-1,93,95,97,-1,-1,-1,-1,-1,-1,-1,-1,-1,-1,-1,-1,-1,-1,-1,-1,-1,-1,-1,-1,-1,-1,-1,-1,-1,-1,-1,-1,-1,-1,-1,-1,-1,-1,-1,-1,-1,-1,-1,-1,-1,-1],"loss_changes":[2.1412262E-1,1.4429982E-1,1.6164768E-1,1.0290217E0,3.9647928E-1,5.10267E-1,7.665751E-1,3.869974E-1,4.8648596E-1,1.5428662E-2,2.364171E-1,3.8039577E-1,4.1199803E-1,7.6587474E-1,2.624781E-1,1.2208947E0,2.3989847E-1,0E0,0E0,1.5735286E-1,1.599608E-1,7.202209E-1,6.4604646E-1,9.5469964E-1,7.5080067E-1,0E0,2.0915736E-1,2.5734234E-1,2.2961509E-1,2.5030446E-1,4.439874E-1,2.0059697E-1,3.5893893E-1,1.4172196E-2,2.1373294E-1,1.889339E-2,1.6437611E-1,0E0,6.1202466E-2,2.196782E-1,1.3615423E-1,1.3798684E-1,6.786124E-1,6.372657E-1,7.178203E-1,4.398037E-1,0E0,5.809859E-1,4.1282272E-1,0E0,3.9315605E-1,3.1403574E-1,0E0,0E0,2.3162338E-1,7.126726E-1,3.7839496E-1,0E0,0E0,0E0,0E0,0E0,0E0,0E0,0E0,0E0,0E0,0E0,0E0,0E0,0E0,0E0,0E0,0E0,0E0,0E0,0E0,0E0,0E0,0E0,0E0,0E0,0E0,0E0,0E0,0E0,0E0,0E0,0E0,0E0,0E0,0E0,0E0,0E0,0E0,0E0,0E0,0E0,0E0],"parents":[2147483647,0,0,1,1,2,2,3,3,4,4,5,5,6,6,7,7,8,8,9,9,10,10,11,11,12,12,13,13,14,14,15,15,16,16,19,19,20,20,21,21,22,22,23,23,24,24,26,26,27,27,28,28,29,29,30,30,31,31,32,32,33,33,34,34,35,35,36,36,38,38,39,39,40,40,41,41,42,42,43,43,44,44,45,45,47,47,48,48,50,50,51,51,54,54,55,55,56,56],"right_children":[2,4,6,8,10,12,14,16,18,20,22,24,26,28,30,32,34,-1,-1,36,38,40,42,44,46,-1,48,50,52,54,56,58,60,62,64,66,68,-1,70,72,74,76,78,80,82,84,-1,86,88,-1,90,92,-1,-1,94,96,98,-1,-1,-1,-1,-1,-1,-1,-1,-1,-1,-1,-1,-1,-1,-1,-1,-1,-1,-1,-1,-1,-1,-1,-1,-1,-1,-1,-1,-1,-1,-1,-1,-1,-1,-1,-1,-1,-1,-1,-1,-1,-1],"split_conditions":[6E0,2.68E2,3.2E1,2.66E2,2.89E2,2.7E1,4E1,2.57E2,3E0,2.76E2,3.18E2,2.3E1,3E1,7E0,4.2E1,2.54E2,2.64E2,8.758918E-2,-7.817574E-2,2E0,2E0,3.12E2,3.26E2,1.9E1,2.1E1,-6.425648E-2,7E0,3.3E1,3.9E1,8E0,4.8E1,2.4E2,2E0,2.61E2,2E0,2.73E2,2.73E2,-2.009849E-2,4E0,2.98E2,2E0,3.21E2,3.33E2,1.6E1,1.4E1,1.7E1,2.1270563E-1,3.1E1,3.1E1,1.6585588E-2,3.4E1,3.7E1,7.638398E-2,2.1479202E-2,4.1E1,1.2E1,5.2E1,-4.0247344E-4,-1.8413782E-2,3.1341936E-2,1.3831893E-1,-2.885191E-2,-4.90159E-2,2.6926477E-2,-8.075066E-2,-3.871367E-2,-1.6516527E-2,7.478157E-2,-1.2145186E-2,-7.0932806E-2,3.749299E-3,1.7565696E-2,-1.7869672E-2,8.2317576E-2,1.4666663E-2,-2.8060252E-2,-7.4526936E-2,5.718547E-2,-7.2592166E-3,1.7314219E-3,3.698425E-2,-7.231525E-2,2.4290502E-2,3.1224549E-2,-8.8967904E-2,-1.4384423E-1,1.9924808E-2,9.059484E-2,-1.7605528E-2,2.3995706E-1,7.503429E-2,3.2600004E-2,-3.9599117E-2,6.7242626E-3,-1.1090844E-1,2.0994375E-2,1.8315554E-1,-5.7366062E-2,4.019966E-3],"split_indices":[1,0,0,0,0,0,0,0,1,0,0,0,0,1,0,0,0,0,0,1,1,0,0,0,1,0,1,0,0,1,0,0,1,0,1,0,0,0,1,0,1,0,0,0,1,1,0,0,0,0,0,0,0,0,0,1,0,0,0,0,0,0,0,0,0,0,0,0,0,0,0,0,0,0,0,0,0,0,0,0,0,0,0,0,0,0,0,0,0,0,0,0,0,0,0,0,0,0,0],"split_type":[0,0,0,0,0,0,0,0,0,0,0,0,0,0,0,0,0,0,0,0,0,0,0,0,0,0,0,0,0,0,0,0,0,0,0,0,0,0,0,0,0,0,0,0,0,0,0,0,0,0,0,0,0,0,0,0,0,0,0,0,0,0,0,0,0,0,0,0,0,0,0,0,0,0,0,0,0,0,0,0,0,0,0,0,0,0,0,0,0,0,0,0,0,0,0,0,0,0,0],"sum_hessian":[3.471E3,2.788E3,6.83E2,2.479E3,3.09E2,5.18E2,1.65E2,2.463E3,1.6E1,8.1E1,2.28E2,4.82E2,3.6E1,3.7E1,1.28E2,2.423E3,4E1,1.5E1,1E0,2.7E1,5.4E1,7.8E1,1.5E2,4.43E2,3.9E1,1.7E1,1.9E1,9E0,2.8E1,9E0,1.19E2,2.411E3,1.2E1,3E1,1E1,2E1,7E0,4.5E1,9E0,6.2E1,1.6E1,2.6E1,1.24E2,4.1E2,3.3E1,3.8E1,1E0,7E0,1.2E1,2E0,7E0,2.3E1,5E0,3E0,6E0,1.7E1,1.02E2,2.355E3,5.6E1,6E0,6E0,1.1E1,1.9E1,9E0,1E0,1.2E1,8E0,2E0,5E0,8E0,1E0,2.7E1,3.5E1,1.2E1,4E0,1.5E1,1.1E1,1.6E1,1.08E2,3.58E2,5.2E1,2.4E1,9E0,3.6E1,2E0,2E0,5E0,4E0,8E0,2E0,5E0,1.6E1,7E0,2E0,4E0,1.5E1,2E0,9E0,9.3E1],"tree_param":{"num_deleted":"0","num_feature":"2","num_nodes":"99","size_leaf_vector":"1"}},{"base_weights":[3.4539224E-4,-1.9193275E-3,2.03612E-2,6.878057E-2,-2.7901276E-3,1.7797884E-2,1.2867951E-1,4.5269534E-2,1.6643381E-1,-4.7289524E-2,-1.4974225E-3,2.0435924E-2,-1.662037E-1,2.5177112E-1,-1.6039689E-1,7.229984E-2,-9.552368E-3,8.6085856E-2,1.2918949E-3,2.9845033E-2,-7.076021E-2,3.8637266E-2,-2.7390402E-3,1.7413974E-2,6.6189766E-2,-2.7594233E-1,4.091263E-2,3.5872763E-1,-4.2451717E-2,-8.495078E-2,1.2772179E-2,3.1381384E-2,3.793426E-2,1.0718147E-2,4.9812794E-2,-1.1559583E-1,-1.810889E-2,6.3838656E-3,8.684003E-2,-1.5089194E-1,-1.867208E-3,2.006769E-2,-7.163467E-2,-2.7398873E-2,-1.2446709E-1,1.5519634E-1,1.89749E-1,2.1920474E-2,-8.009721E-3,-1.6989212E-2,1.5441424E-2,3.2165863E-2,-8.711358E-3,-2.2854237E-2,-4.2036533E-2,2.623913E-2,-2.1021627E-2,1.8122066E-2,-2.9746456E-2,-1.5898705E-2,2.8987309E-2,1.01107486E-1,-6.0735244E-2,-3.068888E-3,9.996677E-4,5.0605196E-3,6.720246E-2,-3.6086943E-2,9.426141E-3,-1.5862657E-2,8.647471E-2],"categories":[],"categories_nodes":[],"categories_segments":[],"categories_sizes":[],"default_left":[0,0,0,0,0,0,0,0,0,0,0,0,0,0,0,0,0,0,0,0,0,0,0,0,0,0,0,0,0,0,0,0,0,0,0,0,0,0,0,0,0,0,0,0,0,0,0,0,0,0,0,0,0,0,0,0,0,0,0,0,0,0,0,0,0,0,0,0,0,0,0],"id":16,"left_children":[1,3,5,7,9,11,13,15,17,19,21,23,25,27,29,31,-1,-1,-1,33,35,37,39,41,-1,43,-1,45,-1,-1,-1,47,-1,49,51,53,55,57,59,61,63,65,67,-1,-1,-1,69,-1,-1,-1,-1,-1,-1,-1,-1,-1,-1,-1,-1,-1,-1,-1,-1,-1,-1,-1,-1,-1,-1,-1,-1],"loss_changes":[1.5742552E-1,1.9227622E-1,9.572172E-2,7.97109E-2,1.7727754E-1,1.7134619E-1,3.2504636E-1,6.900059E-2,1.3554044E-1,1.5961677E-1,1.4945215E-1,2.030625E-1,2.0365486E-1,3.0314314E-1,8.6813256E-2,4.9207255E-2,0E0,0E0,0E0,7.486442E-3,1.5607053E-1,1.393689E-1,3.753285E-1,8.131025E-2,0E0,6.471452E-2,0E0,3.583336E-2,0E0,0E0,0E0,3.826873E-2,0E0,3.585109E-2,4.837901E-2,2.4126291E-2,1.8167734E-1,3.1957322E-1,5.4375827E-2,4.9589047E-1,1.2577778E-1,2.1088243E-1,5.392118E-2,0E0,0E0,0E0,1.108354E-1,0E0,0E0,0E0,0E0,0E0,0E0,0E0,0E0,0E0,0E0,0E0,0E0,0E0,0E0,0E0,0E0,0E0,0E0,0E0,0E0,0E0,0E0,0E0,0E0],"parents":[2147483647,0,0,1,1,2,2,3,3,4,4,5,5,6,6,7,7,8,8,9,9,10,10,11,11,12,12,13,13,14,14,15,15,19,19,20,20,21,21,22,22,23,23,25,25,27,27,31,31,33,33,34,34,35,35,36,36,37,37,38,38,39,39,40,40,41,41,42,42,46,46],"right_children":[2,4,6,8,10,12,14,16,18,20,22,24,26,28,30,32,-1,-1,-1,34,36,38,40,42,-1,44,-1,46,-1,-1,-1,48,-1,50,52,54,56,58,60,62,64,66,68,-1,-1,-1,70,-1,-1,-1,-1,-1,-1,-1,-1,-1,-1,-1,-1,-1,-1,-1,-1,-1,-1,-1,-1,-1,-1,-1,-1],"split_conditions":[9E0,2E0,6.3E1,6E0,4E0,5.5E1,4E0,5E0,8E0,3E0,6E0,4.6E1,4E0,2.1E2,5E0,4E0,-9.552368E-3,8.6085856E-2,1.2918949E-3,3E0,6E0,5E0,7E0,3.7E1,6.6189766E-2,3E0,4.091263E-2,8.6E1,-4.2451717E-2,-8.495078E-2,1.2772179E-2,3E0,3.793426E-2,2E0,2E0,4E0,7E0,5E0,2E0,2E0,4.6E1,3.3E1,4.1E1,-2.7398873E-2,-1.2446709E-1,1.5519634E-1,9.7E1,2.1920474E-2,-8.009721E-3,-1.6989212E-2,1.5441424E-2,3.2165863E-2,-8.711358E-3,-2.2854237E-2,-4.2036533E-2,2.623913E-2,-2.1021627E-2,1.8122066E-2,-2.9746456E-2,-1.5898705E-2,2.8987309E-2,1.01107486E-1,-6.0735244E-2,-3.068888E-3,9.996677E-4,5.0605196E-3,6.720246E-2,-3.6086943E-2,9.426141E-3,-1.5862657E-2,8.647471E-2],"split_indices":[1,0,1,1,0,1,0,1,1,1,0,1,0,1,0,1,0,0,0,0,1,0,0,1,0,0,0,1,0,0,0,1,0,1,1,1,1,1,1,1,0,1,1,0,0,0,1,0,0,0,0,0,0,0,0,0,0,0,0,0,0,0,0,0,0,0,0,0,0,0,0],"split_type":[0,0,0,0,0,0,0,0,0,0,0,0,0,0,0,0,0,0,0,0,0,0,0,0,0,0,0,0,0,0,0,0,0,0,0,0,0,0,0,0,0,0,0,0,0,0,0,0,0,0,0,0,0,0,0,0,0,0,0,0,0,0,0,0,0,0,0,0,0,0,0],"sum_hessian":[3.471E3,3.119E3,3.52E2,3.7E1,3.082E3,3.45E2,7E0,3.1E1,6E0,8.6E1,2.996E3,3.41E2,4E0,5E0,2E0,2.3E1,8E0,3E0,3E0,2E1,6.6E1,8.9E1,2.907E3,3.37E2,4E0,3E0,1E0,4E0,1E0,1E0,1E0,1.4E1,9E0,1.1E1,9E0,3.5E1,3.1E1,5.4E1,3.5E1,1.6E1,2.891E3,3.28E2,9E0,2E0,1E0,1E0,3E0,8E0,6E0,4E0,7E0,5E0,4E0,1.5E1,2E1,1E1,2.1E1,3.6E1,1.8E1,2E0,3.3E1,1E0,1.5E1,1.108E3,1.783E3,3.24E2,4E0,6E0,3E0,1E0,2E0],"tree_param":{"num_deleted":"0","num_feature":"2","num_nodes":"71","size_leaf_vector":"1"}},{"base_weights":[3.1210427E-4,4.8754346E-3,-8.894121E-3,2.6313625E-3,1.3968675E-1,-1.5810756E-1,-4.6229386E-3,3.2344125E-3,-1.6941607E-1,6.177509E-2,2.1434708E-1,-1.0312568E-1,-1.303154E-1,6.623064E-2,-7.995752E-3,2.1486846E-3,1.565949E-1,-9.066228E-2,-1.081039E-1,5.3009085E-2,1.168801E-2,3.0075103E-1,2.3261616E-2,-1.2439015E-1,1.6667604E-2,2.0558525E-2,2.1295182E-1,-1.5955725E-1,-2.5646384E-3,3.0613549E-3,-2.924292E-1,1.3292769E-1,-5.961275E-2,-5.4759767E-2,7.1620704E-3,-3.3137263E-3,3.2960773E-2,1.08132936E-1,3.743443E-1,-1.163764E-1,4.712527E-2,-4.648562E-2,-1.8228044E-1,7.634072E-2,-1.334437E-1,2.4220623E-1,-1.6327001E-2,-1.124739E-1,-1.2952842E-1,1.1840042E-1,-4.5821643E-3,7.3568156E-4,2.0657288E-1,-1.5967847E-1,6.153131E-3,-5.0617505E-2,7.536726E-2,4.694109E-3,1.3908828E-2,-8.707881E-4,8.284128E-2,1.41931E-1,5.737543E-3,-7.6231E-2,4.4520665E-2,-2.8926732E-2,4.0639687E-2,-3.4497812E-2,-9.652548E-2,1.115002E-2,1.2495533E-1,-6.1811514E-2,3.8646463E-2,4.3276433E-2,1.8325812E-1,-2.2315508E-2,-5.8325317E-2,6.3960506E-3,1.6930047E-1,-1.5592279E-1,-6.11222E-4],"categories":[],"categories_nodes":[],"categories_segments":[],"categories_sizes":[],"default_left":[0,0,0,0,0,0,0,0,0,0,0,0,0,0,0,0,0,0,0,0,0,0,0,0,0,0,0,0,0,0,0,0,0,0,0,0,0,0,0,0,0,0,0,0,0,0,0,0,0,0,0,0,0,0,0,0,0,0,0,0,0,0,0,0,0,0,0,0,0,0,0,0,0,0,0,0,0,0,0,0,0],"id":17,"left_children":[1,3,5,7,9,11,13,15,17,19,21,23,-1,25,27,29,31,33,-1,-1,35,37,39,41,-1,43,45,47,49,51,53,-1,55,-1,-1,-1,57,59,61,63,-1,65,67,69,71,73,-1,-1,75,77,79,-1,-1,-1,-1,-1,-1,-1,-1,-1,-1,-1,-1,-1,-1,-1,-1,-1,-1,-1,-1,-1,-1,-1,-1,-1,-1,-1,-1,-1,-1],"loss_changes":[1.4590572E-1,7.0209867E-1,7.328219E-1,2.3762406E-1,2.0780128E-1,4.4129133E-1,2.6818255E-1,3.789682E-1,8.762202E-2,1.13056764E-1,3.0670422E-1,1.0139242E-1,0E0,3.373765E-1,8.8035876E-1,6.093083E-1,1.0175008E0,7.8014776E-2,0E0,0E0,7.618227E-3,1.4380133E-1,1.4908797E-1,1.0427451E-1,0E0,3.5381052E-1,1.0704446E-1,1.9071275E-1,2.5289035E-1,9.4068885E-1,5.362884E-1,0E0,3.8154903E-1,0E0,0E0,0E0,1.1308687E-3,9.407399E-2,3.0668175E-1,1.8357807E-1,0E0,1.22094706E-1,9.438667E-2,3.8430214E-1,2.359718E-1,3.0909276E-1,0E0,0E0,1.0719758E-1,7.2392255E-1,1.3334968E0,0E0,0E0,0E0,0E0,0E0,0E0,0E0,0E0,0E0,0E0,0E0,0E0,0E0,0E0,0E0,0E0,0E0,0E0,0E0,0E0,0E0,0E0,0E0,0E0,0E0,0E0,0E0,0E0,0E0,0E0],"parents":[2147483647,0,0,1,1,2,2,3,3,4,4,5,5,6,6,7,7,8,8,9,9,10,10,11,11,13,13,14,14,15,15,16,16,17,17,20,20,21,21,22,22,23,23,25,25,26,26,27,27,28,28,29,29,30,30,32,32,36,36,37,37,38,38,39,39,41,41,42,42,43,43,44,44,45,45,48,48,49,49,50,50],"right_children":[2,4,6,8,10,12,14,16,18,20,22,24,-1,26,28,30,32,34,-1,-1,36,38,40,42,-1,44,46,48,50,52,54,-1,56,-1,-1,-1,58,60,62,64,-1,66,68,70,72,74,-1,-1,76,78,80,-1,-1,-1,-1,-1,-1,-1,-1,-1,-1,-1,-1,-1,-1,-1,-1,-1,-1,-1,-1,-1,-1,-1,-1,-1,-1,-1,-1,-1,-1],"split_conditions":[9.1E1,8.7E1,9.5E1,8.6E1,2E0,5E0,1.02E2,8.5E1,4E0,8.8E1,5E0,4E0,-1.303154E-1,1E2,1.08E2,8.4E1,2E0,2E0,-1.081039E-1,5.3009085E-2,8.9E1,8.8E1,8.9E1,9.3E1,1.6667604E-2,9.9E1,9E0,1.04E2,1.12E2,8.3E1,2E0,1.3292769E-1,5E0,-5.4759767E-2,7.1620704E-3,-3.3137263E-3,9E1,3E0,4E0,7E0,4.712527E-2,3E0,3E0,9.8E1,3E0,8E0,-1.6327001E-2,-1.124739E-1,1.07E2,1.11E2,1.13E2,7.3568156E-4,2.0657288E-1,-1.5967847E-1,6.153131E-3,-5.0617505E-2,7.536726E-2,4.694109E-3,1.3908828E-2,-8.707881E-4,8.284128E-2,1.41931E-1,5.737543E-3,-7.6231E-2,4.4520665E-2,-2.8926732E-2,4.0639687E-2,-3.4497812E-2,-9.652548E-2,1.115002E-2,1.2495533E-1,-6.1811514E-2,3.8646463E-2,4.3276433E-2,1.8325812E-1,-2.2315508E-2,-5.8325317E-2,6.3960506E-3,1.6930047E-1,-1.5592279E-1,-6.11222E-4],"split_indices":[0,0,0,0,1,1,0,0,1,0,1,1,0,0,0,0,1,1,0,0,0,0,0,0,0,0,1,0,0,0,1,0,1,0,0,0,0,1,1,1,0,1,1,0,1,1,0,0,0,0,0,0,0,0,0,0,0,0,0,0,0,0,0,0,0,0,0,0,0,0,0,0,0,0,0,0,0,0,0,0,0],"split_type":[0,0,0,0,0,0,0,0,0,0,0,0,0,0,0,0,0,0,0,0,0,0,0,0,0,0,0,0,0,0,0,0,0,0,0,0,0,0,0,0,0,0,0,0,0,0,0,0,0,0,0,0,0,0,0,0,0,0,0,0,0,0,0,0,0,0,0,0,0,0,0,0,0,0,0,0,0,0,0,0,0],"sum_hessian":[3.471E3,2.321E3,1.15E3,2.284E3,3.7E1,3.1E1,1.119E3,2.277E3,7E0,1.9E1,1.8E1,2.7E1,4E0,5E1,1.069E3,2.262E3,1.5E1,6E0,1E0,5E0,1.4E1,1.2E1,6E0,2.4E1,3E0,3.9E1,1.1E1,3.6E1,1.033E3,2.256E3,6E0,6E0,9E0,3E0,3E0,7E0,7E0,4E0,8E0,3E0,3E0,1.1E1,1.3E1,2.9E1,1E1,1E1,1E0,3E0,3.3E1,1.6E1,1.017E3,2.255E3,1E0,3E0,3E0,7E0,2E0,4E0,3E0,3E0,1E0,6E0,2E0,2E0,1E0,9E0,2E0,1E1,3E0,2.7E1,2E0,8E0,2E0,9E0,1E0,1.9E1,1.4E1,1.4E1,2E0,4E0,1.013E3],"tree_param":{"num_deleted":"0","num_feature":"2","num_nodes":"81","size_leaf_vector":"1"}},{"base_weights":[3.0067214E-4,-4.986706E-3,6.547693E-3,-2.5392516E-2,-1.1139314E-3,4.6710623E-3,4.3920077E-2,-1.9328304E-2,-4.733546E-2,1.13344274E-1,-3.6255294E-3,5.4375986E-3,-1.1519604E-1,6.098838E-1,-9.706211E-3,1.2229859E-2,-3.6438484E-2,1.4764395E-1,6.0055096E-2,-9.192551E-2,-2.3518216E-3,6.7982436E-3,-7.937572E-2,-6.848776E-2,1.2609882E-2,-7.7112336E-3,1.3812467E-1,-5.0755337E-2,4.017822E-2,1.5761487E-2,6.200086E-2,3.6567308E-2,-1.590419E-2,-2.2748448E-1,9.34937E-2,1.5441663E-2,-7.342161E-3,5.4230546E-3,1.7595296E-1,-3.1083614E-1,3.4215983E-2,1.0483086E-1,-1.4948368E-2,3.868209E-3,-3.874939E-2,7.5931266E-2,2.936082E-2,-3.8075395E-2,-1.29155E-2,2.9044058E-2,4.5548854E-3,-4.3546554E-2,-1.3605915E-1,1.0030699E-2,4.4059385E-2,-5.452886E-3,3.0168766E-2,-1.6738312E-1,-9.473138E-4,2.1003475E-3,-1.3854995E-1,1.20744325E-1,1.6717037E-2,-1.784787E-1,-5.557848E-2,-1.3795644E-2,7.076898E-2,-1.3967329E-2,9.183735E-2,-3.7826337E-2,1.46960905E-2],"categories":[],"categories_nodes":[],"categories_segments":[],"categories_sizes":[],"default_left":[0,0,0,0,0,0,0,0,0,0,0,0,0,0,0,0,0,0,0,0,0,0,0,0,0,0,0,0,0,0,0,0,0,0,0,0,0,0,0,0,0,0,0,0,0,0,0,0,0,0,0,0,0,0,0,0,0,0,0,0,0,0,0,0,0,0,0,0,0,0,0],"id":18,"left_children":[1,3,5,7,9,11,13,15,-1,17,19,21,-1,-1,23,25,27,29,31,33,35,37,39,-1,41,43,45,47,49,-1,-1,-1,-1,51,53,55,57,59,61,63,65,67,69,-1,-1,-1,-1,-1,-1,-1,-1,-1,-1,-1,-1,-1,-1,-1,-1,-1,-1,-1,-1,-1,-1,-1,-1,-1,-1,-1,-1],"loss_changes":[1.1471407E-1,1.486217E-1,1.11448444E-1,2.3780686E-1,4.5519322E-1,4.5403314E-1,8.126202E0,1.5595582E-1,0E0,5.3278446E-2,1.739973E-1,1.7537186E-1,0E0,0E0,3.687282E-1,2.5713408E-1,2.0716143E-1,1.0141531E-1,1.1133787E-1,5.742436E-1,1.3579294E-1,3.4611434E-1,6.4164317E-1,0E0,1.7692702E-1,2.2439498E-1,4.0028304E-2,8.723962E-2,4.0998526E-2,0E0,0E0,0E0,0E0,1.7610049E-1,2.7143002E-2,9.604604E-1,2.7491713E0,1.0952909E0,3.0439672E-1,1.7518109E-1,2.8582418E-1,5.018295E-1,3.8988638E-1,0E0,0E0,0E0,0E0,0E0,0E0,0E0,0E0,0E0,0E0,0E0,0E0,0E0,0E0,0E0,0E0,0E0,0E0,0E0,0E0,0E0,0E0,0E0,0E0,0E0,0E0,0E0,0E0],"parents":[2147483647,0,0,1,1,2,2,3,3,4,4,5,5,6,6,7,7,9,9,10,10,11,11,14,14,15,15,16,16,17,17,18,18,19,19,20,20,21,21,22,22,24,24,25,25,26,26,27,27,28,28,33,33,34,34,35,35,36,36,37,37,38,38,39,39,40,40,41,41,42,42],"right_children":[2,4,6,8,10,12,14,16,-1,18,20,22,-1,-1,24,26,28,30,32,34,36,38,40,-1,42,44,46,48,50,-1,-1,-1,-1,52,54,56,58,60,62,64,66,68,70,-1,-1,-1,-1,-1,-1,-1,-1,-1,-1,-1,-1,-1,-1,-1,-1,-1,-1,-1,-1,-1,-1,-1,-1,-1,-1,-1,-1],"split_conditions":[3E0,2.4E1,1.81E2,2.3E1,2.6E1,1.79E2,1.83E2,1E1,-4.733546E-2,2E0,2.8E1,1.54E2,-1.1519604E-1,6.098838E-1,1.85E2,9E0,2.1E1,2.5E1,2.5E1,2E0,5.9E1,1.44E2,1.58E2,-6.848776E-2,1.96E2,8E0,2E0,1.1E1,2.2E1,1.5761487E-2,6.200086E-2,3.6567308E-2,-1.590419E-2,2.7E1,2.7E1,5.1E1,6E1,1.41E2,1.45E2,1.55E2,5E0,1.91E2,2.19E2,3.868209E-3,-3.874939E-2,7.5931266E-2,2.936082E-2,-3.8075395E-2,-1.29155E-2,2.9044058E-2,4.5548854E-3,-4.3546554E-2,-1.3605915E-1,1.0030699E-2,4.4059385E-2,-5.452886E-3,3.0168766E-2,-1.6738312E-1,-9.473138E-4,2.1003475E-3,-1.3854995E-1,1.20744325E-1,1.6717037E-2,-1.784787E-1,-5.557848E-2,-1.3795644E-2,7.076898E-2,-1.3967329E-2,9.183735E-2,-3.7826337E-2,1.46960905E-2],"split_indices":[1,0,0,0,0,0,0,0,0,1,0,0,0,0,0,0,0,0,0,1,0,0,0,0,0,0,1,0,0,0,0,0,0,0,0,0,0,0,0,0,1,0,0,0,0,0,0,0,0,0,0,0,0,0,0,0,0,0,0,0,0,0,0,0,0,0,0,0,0,0,0],"split_type":[0,0,0,0,0,0,0,0,0,0,0,0,0,0,0,0,0,0,0,0,0,0,0,0,0,0,0,0,0,0,0,0,0,0,0,0,0,0,0,0,0,0,0,0,0,0,0,0,0,0,0,0,0,0,0,0,0,0,0,0,0,0,0,0,0,0,0,0,0,0,0],"sum_hessian":[3.471E3,1.88E3,1.591E3,2.99E2,1.581E3,1.516E3,7.5E1,2.87E2,1.2E1,3.3E1,1.548E3,1.514E3,2E0,1E0,7.4E1,1.01E2,1.86E2,1.9E1,1.4E1,2.1E1,1.527E3,1.491E3,2.3E1,6E0,6.8E1,8.8E1,1.3E1,1.57E2,2.9E1,8E0,1.1E1,9E0,5E0,1.2E1,9E0,3.34E2,1.193E3,1.48E3,1.1E1,7E0,1.6E1,1.5E1,5.3E1,7.6E1,1.2E1,2E0,1.1E1,1.3E1,1.44E2,8E0,2.1E1,1E1,2E0,5E0,4E0,2.4E2,9.4E1,8E0,1.185E3,1.476E3,4E0,3E0,8E0,1E0,6E0,1.2E1,4E0,9E0,6E0,1.9E1,3.4E1],"tree_param":{"num_deleted":"0","num_feature":"2","num_nodes":"71","size_leaf_vector":"1"}},{"base_weights":[2.5082493E-4,1.8606675E-3,-1.594581E-2,9.449427E-4,1.7105258E-1,-1.8389627E-2,2.4352646E-1,1.9044465E-3,-6.994377E-2,6.311201E-2,-6.871205E-2,-5.9876025E-2,-3.5832466E-3,1.0620961E-1,3.3772946E-3,9.6808467E-4,2.2432397E-1,-1.0232227E-1,1.9529343E-2,-4.1459303E-2,-6.816315E-2,-1.2875338E-4,-1.5970059E-1,1.458937E-3,-8.78465E-2,2.3426384E-2,1.0155412E-1,-6.921265E-2,-1.1707193E-1,1.9807335E-2,-1.4196412E-1,-7.453364E-2,5.054325E-2,-1.4035813E-2,-1.5968156E-1,3.5047933E-2,-1.8065682E-2,-5.546948E-2,-8.8364845E-3,2.467014E-7,2.0069994E-2,-1.20342495E-2,-1.277346E-1,-2.8480547E-2,-4.26424E-3,-2.4191322E-2,-6.307409E-2,-6.855419E-2,4.670334E-3,-2.7838128E-2,-1.1962923E-2,5.8372788E-2,-8.969093E-3,-5.4555755E-2,5.978537E-3,-4.817322E-3,4.457261E-2,-3.5804227E-2,1.1867095E-3],"categories":[],"categories_nodes":[],"categories_segments":[],"categories_sizes":[],"default_left":[0,0,0,0,0,0,0,0,0,0,0,0,0,0,0,0,0,0,0,0,0,0,0,0,0,0,0,0,0,0,0,0,0,0,0,0,0,0,0,0,0,0,0,0,0,0,0,0,0,0,0,0,0,0,0,0,0,0,0],"id":19,"left_children":[1,3,5,7,9,11,13,15,17,-1,-1,19,21,-1,-1,23,25,27,29,31,33,35,37,39,41,-1,-1,43,45,-1,47,49,51,-1,53,55,57,-1,-1,-1,-1,-1,-1,-1,-1,-1,-1,-1,-1,-1,-1,-1,-1,-1,-1,-1,-1,-1,-1],"loss_changes":[9.055871E-2,4.8927245E-1,2.0358664E-1,2.1391374E-1,3.1562737E-1,1.914356E-1,7.301544E-2,6.458214E-1,1.23672515E-1,0E0,0E0,9.689003E-3,1.24559194E-1,0E0,0E0,1.3483623E-1,1.9064862E-1,7.0361793E-3,9.947696E-2,8.896904E-2,1.00131094E-1,1.4386146E-1,1.0963261E-2,2.9332268E-1,2.5713778E-1,0E0,0E0,1.5626967E-2,5.094126E-2,0E0,4.4460535E-2,9.5894635E-3,9.850541E-2,0E0,4.344529E-2,4.4913176E-1,3.37257E-1,0E0,0E0,0E0,0E0,0E0,0E0,0E0,0E0,0E0,0E0,0E0,0E0,0E0,0E0,0E0,0E0,0E0,0E0,0E0,0E0,0E0,0E0],